tree
version=v4
num_class=4
num_tree_per_iteration=4
label_index=0
max_feature_idx=66
objective=multiclass num_class:4
feature_names=hour_sin hour_cos dayofweek_sin dayofweek_cos poi_school_count_100m poi_school_count_200m poi_school_count_500m poi_university_count_100m poi_university_count_200m poi_university_count_500m poi_hospital_count_100m poi_hospital_count_200m poi_hospital_count_500m poi_clinic_count_100m poi_clinic_count_200m poi_clinic_count_500m poi_restaurant_count_100m poi_restaurant_count_200m poi_restaurant_count_500m poi_shop_count_100m poi_shop_count_200m poi_shop_count_500m poi_hotel_count_100m poi_hotel_count_200m poi_hotel_count_500m poi_museum_count_100m poi_museum_count_200m poi_museum_count_500m poi_park_count_100m poi_park_count_200m poi_park_count_500m poi_stadium_count_100m poi_stadium_count_200m poi_stadium_count_500m poi_all_count_100m poi_all_count_200m poi_all_count_500m poi_school_count_100m_present poi_school_count_200m_present poi_school_count_500m_present poi_university_count_100m_present poi_university_count_200m_present poi_university_count_500m_present poi_hospital_count_100m_present poi_hospital_count_200m_present poi_hospital_count_500m_present poi_clinic_count_100m_present poi_clinic_count_200m_present poi_clinic_count_500m_present poi_restaurant_count_100m_present poi_restaurant_count_200m_present poi_restaurant_count_500m_present poi_shop_count_100m_present poi_shop_count_200m_present poi_shop_count_500m_present poi_hotel_count_100m_present poi_hotel_count_200m_present poi_hotel_count_500m_present poi_museum_count_100m_present poi_museum_count_200m_present poi_museum_count_500m_present poi_park_count_100m_present poi_park_count_200m_present poi_stadium_count_100m_present poi_stadium_count_200m_present poi_stadium_count_500m_present poi_all_count_100m_present
feature_infos=[-1:0.86602540378443871] [-1:1] [0.7818314824680298:0.97492791218182362] [-0.22252093395631434:0.62348980185873359] [0:1.791759469228055] [0:2.3025850929940459] [0:3.1354942159291497] [0:1.9459101490553132] [0:2.0794415416798357] [0:2.9957322735539909] [0:1.6094379124341003] [0:1.791759469228055] [0:1.791759469228055] [0:1.9459101490553132] [0:2.3978952727983707] [0:3.3672958299864741] [0:2.9957322735539909] [0:4.1271343850450917] [0:5.4595855141441589] [0:4.0430512678345503] [0:5.1119877883565437] [0:6.4876840184846101] [0:2.0794415416798357] [0:2.8903717578961645] [0:4.2766661190160553] [0:1.0986122886681098] [0:1.9459101490553132] [0:2.7725887222397811] [0:2.0794415416798357] [0:2.6390573296152584] [0.69314718055994529:3.3322045101752038] [0:0.69314718055994529] [0:0.69314718055994529] [0:1.0986122886681098] [0:4.7535901911063645] [1.3862943611198906:5.730099782973574] [3.4011973816621555:7.0958932210975316] [0:1] [0:1] [0:1] [0:1] [0:1] [0:1] [0:1] [0:1] [0:1] [0:1] [0:1] [0:1] [0:1] [0:1] [0:1] [0:1] [0:1] [0:1] [0:1] [0:1] [0:1] [0:1] [0:1] [0:1] [0:1] [0:1] [0:1] [0:1] [0:1] [0:1]
tree_sizes=3418 3375 3363 3388 3497 3427 3415 3469 3507 3488 3396 3477 3516 3541 3390 3483 3517 3495 3437 3491 3512 3505 3439 3501 3516 3447 3451 3509 3529 3476 3462 3515 3551 3509 3448 3506 3493 3506 3452 3507 3530 3511 3438 3499 3513 3435 3429 3508 3546 3480 3442 3514 3508 3532 3420 3514 3522 3499 3458 3521 3520 3502 3430 3518 3516 3482 3480 3511 3521 3474 3475 3510 3520 3498 3444 3517 3524 3495 3498 3545 3541 3492 3484 3530 3519 3490 3496 3514 3514 3498 3470 3514 3561 3489 3445 3544 3540 3473 3450 3517 3557 3501 3483 3535 3528 3452 3504 3528 3553 3506 3475 3511 3519 3504 3497 3521 3534 3493 3476 3523 3539 3523 3482 3536 3536 3513 3464 3525 3519 3501 3501 3527 3528 3465 3517 3539 3502 3508 3466 3520 3529 3513 3489 3524 3524 3509 3493 3532 3529 3516 3466 3535 3533 3503 3464 3531 3521 3495 3490 3542 3529 3506 3497 3533 3546 3477 3453 3529 3518 3479 3481 3537 3531 3481 3465 3547 3515 3500 3500 3530 3518 3495 3503 3534 3533 3517 3487 3542 3538 3487 3490 3513 3546 3506 3483 3543 3519 3503 3481 3526 3538 3514 3472 3539 3518 3485 3491 3527 3548 3495 3491 3519 3537 3499 3475 3537 3535 3497 3507 3543 3514 3499 3478 3530 3522 3516 3482 3524 3521 3504 3474 3541 3539 3516 3508 3522 3540 3490 3502 3521 3550 3511 3505 3567 3542 3506 3491 3532 3550 3537 3511 3537 3543 3511 3489 3535 3533 3494 3501 3551 3541 3552 3500 3533 3528 3506 3502 3526 3544 3522 3484 3516 3541 3507 3493 3542 3533 3543 3495 3539 3557 3523 3503 3558 3549 3522 3493 3521 3560 3533 3492 3545 3564 3508 3489 3527 3538 3536 3515 3532 3508 3509 3510 3554 3541 3525 3504 3528 3548 3548 3490 3547 3542 3524 3514 3539 3536 3482 3514 3533 3565 3563 3520 3526 3550 3520 3506 3528 3550 3543 3500 3510 3533 3530 3504 3526 3551 3509 3500 3548 3561 3542 3530 3548 3550 3522 3518 3511 3557 3511 3500 3500 3564 3473 3536 3520 3537 3498 3510 3537 3555 3535 3544 3554 3542 3548 3536 3552 3554 3570 3536 3525 3560 3510 3531 3555 3542 3499 3521 3541 3546 3502 3532 3568 3550 3523 3507 3561 3559 3505 3532 3567 3551 3549 3540 3555 3530 3549 3503 3560 3535 3531 3547 3536 3553 3520 3564 3552 3539 3514 3543 3528 3562 3523 3553 3532 3543 3536 3529 3536 3535 3516 3562 3576 3536 3503 3557 3541 3530 3510 3527 3541 3536 3525 3538 3562 3554 3547 3533 3557 3549 3525 3485 3548 3535 3551 3561 3563 3533 3522 3540 3568 3530 3523 3541 3558 3572 3537 3548 3544 3557 3528 3545 3548 3562 3523 3545 3543 3548 3527 3560 3544 3551 3565 3514 3560 3537 3551 3541 3569 3549 3612 3535 3554 3551 3545 3533 3537 3535 3543 3549 3541 3562 3547 3579 3561 3550 3532 3525 3557 3546 3566 3529 3552 3545 3542 3512 3526 3579 3554 3531 3548 3531 3538 3532 3566 3572 3539 3478 3538 3583 3565 3506 3535 3526 3533 3550 3529 3549 3539 3543 3539 3572 3534 3491 3527 3563 3553 3552 3543 3536 3580 3531 3544 3558 3582 3540 3540 3564 3568 3528 3514 3574 3531 3546 3549 3544 3593 3530 3553 3580 3552 3574 3588 3546 3616 3537 3567 3541 3551 3547 3537 3562 3588 3529 3544 3564 3496 3541 3556 3540 3568 3592 3544 3565 3620 3527 3562 3579 3541 3497 3549 3551 3548 3548 3563 3585 3502 3538 3526 3585 3520 3555 3582 3570 3596 3555 3513 3551 3525 3566 3580 3574 3520 3543 3564 3556 3533 3539 3544 3572 3533 3548 3572 3582 3537 3537 3557 3569 3537 3536 3547 3557 3561 3531 3545 3550 3546 3510 3572 3577 3549 3544 3526 3589 3519 3541 3552 3550 3554 3524 3549 3577 3545 3524 3547 3578 3536 3557 3550 3569 3538 3564 3558 3551 3549 3548 3551 3553 3544 3559 3562 3571 3565 3555 3566 3543 3546 3549 3531 3540 3571 3578 3543 3570 3533 3601 3524 3545 3569 3550 3553 3579 3561 3556 3562 3557 3558 3567 3547 3563 3572 3556 3575 3576 3569 3553 3565 3529 3563 3542 3541 3586 3564 3545 3575 3563 3574 3580 3548 3555 3585 3602 3557 3537 3565 3575 3574 3560 3565 3578 3582 3550 3580 3577 3563 3557 3582 3550 3551 3569 3583 3597 3583 3540 3585 3556 3499 3555 3571 3604 3580 3550 3620 3577 3547 3557 3580 3575 3575 3546 3592 3562 3573 3576 3608 3595 3584 3592 3583 3583 3582 3574 3577 3620 3561 3575 3603 3563 3583 3557 3597 3575 3546 3568 3606 3591 3555 3555 3630 3589 3562

Tree=0
num_leaves=31
num_cat=0
split_feature=30 18 35 6 6 27 8 16 37 30 6 24 19 21 34 24 18 16 24 20 30 5 6 35 6 27 15 24 18 29
split_gain=65748.7 187902 171843 59248 52805.1 22725.9 19778.5 19392.6 17202.1 15244.4 13905.8 11585.9 10802.7 15057.9 8926.91 8878.29 8386.45 8071.4 7034.09 5960.59 4284 3865.55 3562.64 3428.22 2428.66 2239.65 12628.5 5733.65 4524.98 2287.81
threshold=2.8617925509761908 4.6586997221347959 3.4175922930736511 2.1383330595080281 2.1383330595080281 1.0000000180025095e-35 0.89587973461402759 1.0000000180025095e-35 1.0000000180025095e-35 2.3502401828962087 1.4978661367769956 1.7005986908310777 2.6735537653587347 4.4127799275304271 1.8688348091416842 3.3842466058243152 3.7012257604091228 1.2424533248940004 3.1567740231385479 2.8029010331479989 2.0126758453675748 1.4978661367769956 2.602003343538398 3.0677824455408698 2.602003343538398 0.89587973461402759 1.4978661367769956 3.0201273556387074 4.8481086751891054 0.89587973461402759
decision_type=2 2 2 2 2 2 2 2 2 2 2 2 2 2 2 2 2 2 2 2 2 2 2 2 2 2 2 2 2 2
left_child=1 2 3 6 8 7 17 16 10 11 -2 -3 15 24 20 -4 -5 -1 -11 23 -7 25 -9 -12 -14 26 27 -13 -28 -30
right_child=4 9 12 5 -6 14 -8 22 -10 18 19 21 13 -15 -16 -17 -18 -19 -20 -21 -22 -23 -24 -25 -26 -27 28 -29 29 -31
leaf_value=-1.2362943326022959 -1.2362943326022959 -1.2362943326022959 -1.2362943326022959 -1.2362943326022959 -1.2362943326022959 -1.2362943326022959 -1.4301494976721889 -1.2362943326022959 -1.2362943326022959 -1.2362943326022959 -1.2362943326022959 -1.2362943326022959 -1.2362943326022959 -1.2362943326022959 -1.2362943326022959 -1.4226934380197191 -1.4362943326022961 -1.4091655962957608 -1.4328369932758718 -1.2362943326022959 -1.4346055360161951 -1.2362943326022959 -1.4307589747806855 -1.4342810584848473 -1.4362943326022961 -1.4329890314754075 -1.2362943326022959 -1.40935352983967 -1.429067440783752 -1.2362943326022959
leaf_weight=8496.4210275709629 908.65768575668335 805.33739194273949 38763.78559422493 3764.4663003981113 3727.6891199350357 274.71342772245407 1825.5976357460022 252.02248102426529 1150.6094657182693 1589.8959956169128 219.19709464907646 1351.6410552859306 164.95553386211395 2404.156793564558 588.17993295192719 649.52874174714088 608.93988132476807 733.50985339283943 637.87665811181068 383.77019682526588 31386.273578107357 265.34385141730309 3597.2278135418892 86543.543473362923 1902.0416293144226 57789.554435014725 312.19173294305801 740.99254506826401 24456.873293429613 154.88483279943466
leaf_count=133301 14256 12635 608168 59061 58484 4310 1374 3954 18052 24944 3439 21206 2588 37719 9228 862 170 1738 348 6021 4859 4163 2091 16285 531 24080 4898 1745 20446 2430
internal_value=-1.3864 -1.36905 -1.32043 -1.38236 -1.42067 -1.41038 -1.27978 -1.33618 -1.42837 -1.4217 -1.43088 -1.42505 -1.24772 -1.32137 -1.4293 -1.23937 -1.26414 -1.25003 -1.29257 -1.43291 -1.43288 -1.42684 -1.41803 -1.43378 -1.42033 -1.42743 -1.41555 -1.29757 -1.42545 -1.42785
internal_weight=276450 183516 95411.8 51527.4 92933.5 40471.8 11055.5 8222.66 89205.8 88104.6 88055.2 85876.8 43884.5 4471.15 32249.2 39413.3 4373.41 9229.93 2227.77 87146.5 31661 85071.5 3849.25 86762.7 2067 84806.1 27016.6 2092.63 24923.9 24611.8
internal_count=1103386 986849 869954 220086 116537 83673 136413 65276 58053 116895 40001 91603 649868 40838 18397 609030 59231 135039 25292 25745 9169 78968 6045 19724 3119 74805 50725 22951 27774 22876
is_linear=0
shrinkage=1


Tree=1
num_leaves=31
num_cat=0
split_feature=29 21 35 18 6 29 23 21 28 22 23 6 23 60 0 0 0 0 0 0 18 18 0 19 14 2 0 0 0 0
split_gain=279982 160271 73750.9 62726.9 46721.3 26367.4 95502.7 28079.8 12187.7 3932.15 3229.95 11161.6 13593 2243.2 1323.07 3241.02 1203.07 727.636 4097.09 395.181 16.4585 1898.13 12.6509 2.41565 1.18595 0.0220273 0.0514598 0.00905642 0.0147542 0.0298224
threshold=1.4978661367769956 3.6762205501217919 2.8617925509761908 3.2769667020129059 2.4414009612931857 1.2424533248940004 0.89587973461402759 3.5972184255501678 1.0000000180025095e-35 1.7005986908310777 2.0126758453675748 2.3502401828962087 2.249904835165133 1.0000000180025095e-35 0.60355339059327384 -0.70710678118654735 -0.9159756150367534 0.60355339059327384 -0.70710678118654735 -0.78656609248549292 3.4175922930736511 3.3140206880897671 -0.78656609248549292 1.7005986908310777 1.0000000180025095e-35 0.87837969732492682 0.12940952255126045 0.60355339059327384 1.0000000180025095e-35 -1.0000000180025095e-35
decision_type=2 2 2 2 2 2 2 2 2 2 2 2 2 2 2 2 2 2 2 2 2 2 2 2 2 2 2 2 2 2
left_child=2 3 4 -2 -1 10 -7 -8 9 -9 -4 -12 16 -6 15 19 -13 18 22 -11 21 -5 -18 24 27 -25 -27 28 29 -22
right_child=1 -3 5 20 13 6 7 8 -10 14 11 12 -14 -15 -16 -17 17 -19 -20 -21 23 -23 -24 25 -26 26 -28 -29 -30 -31
leaf_value=-1.4362943837575266 -1.4362943837575266 -1.4362943837575266 -1.4362943837575266 -1.2365375417942688 -1.4362943837575266 -1.4362943837575266 -1.2378716996793671 -1.4362943837575266 -1.4362943837575266 -1.2979585091173993 -1.4362943837575266 -1.4362943837575266 -1.4362943837575266 -1.2365430301397269 -1.2362943801971689 -1.4362943837575266 -1.2477059574638221 -1.2369044000420206 -1.4362943837575266 -1.2362943801971689 -1.2369836250225632 -1.4362943837575266 -1.2370057084125625 -1.2374179571565644 -1.2362943801971689 -1.2373830184498613 -1.2381800775241314 -1.2371385195215971 -1.2368638478478844 -1.2374771228288568
leaf_weight=4440.4409182071686 4320.2178088128567 15740.396154016256 121518.06979236007 9279.207794457674 142.71075746417046 37142.81151676178 9827.5786571502686 445.0867438018322 3445.4934623539448 464.71093368530273 15286.670311629772 109.48697781562805 2462.5819532573223 9279.462748914957 1178.580192565918 365.36392879486084 568.13484200835228 1128.4502508044243 362.03743806481361 589.29009628295898 5752.0081910789013 120.46598106622696 537.63042777776718 8781.5414778590202 18696.567600250244 538.65024560689926 324.49041509628296 860.78233197331429 2417.6159824132919 323.34312003850937
leaf_count=51175 49620 198709 618795 350 2239 141536 1398 6983 16301 46 9381 117 1708 354 22 102 77 75 381 11 418 1890 40 937 349 56 54 73 153 36
internal_value=-1.38552 -1.29669 -1.41403 -1.25395 -1.30258 -1.42193 -1.392 -1.29117 -1.37189 -1.29898 -1.4332 -1.41482 -1.3513 -1.23957 -1.27545 -1.30797 -1.27394 -1.26709 -1.2903 -1.26348 -1.23723 -1.2391 -1.2425 -1.23676 -1.23652 -1.23744 -1.23768 -1.23698 -1.23697 -1.23701
internal_weight=276450 67155.3 209295 51414.9 13862.6 195432 53458.9 16316.1 6488.53 3043.03 141973 20455 5168.32 9422.17 2597.95 1419.36 2705.74 2596.25 1467.8 1054 47094.7 9399.67 1105.77 37695 28050.3 9644.68 863.141 9353.75 8492.97 6075.35
internal_count=1103386 252645 850741 53936 53768 796973 166399 24863 23465 7164 630574 11779 2398 2593 181 159 690 573 498 57 4316 2240 117 2076 1029 1047 110 680 607 454
is_linear=0
shrinkage=1


Tree=2
num_leaves=31
num_cat=0
split_feature=21 25 21 34 18 28 36 29 4 19 4 21 1 1 0 0 0 1 0 0 1 0 0 1 0 0 16 19 36 34
split_gain=287391 142571 77767.7 66813.3 154290 19752.1 11001.4 8456.33 8412.9 7833.92 7582.02 3088.73 2249.36 2231.4 1605.46 1591.1 7859.52 212.033 111.721 4099.32 104.078 167.991 45.7671 47.4085 1734.97 37.8141 10.8426 7.85525 1699.79 2.30131
threshold=3.0677824455408698 0.89587973461402759 2.8617925509761908 2.4414009612931857 4.1820210059610323 1.0000000180025095e-35 5.8763332563158359 0.89587973461402759 1.0000000180025095e-35 1.4978661367769956 1.0000000180025095e-35 3.7012257604091228 -0.70710678118654757 0.60355339059327384 -0.9159756150367534 -0.60355339059327362 0.60355339059327384 -0.5 0.25881904510252091 -0.25881904510252113 1.0000000180025095e-35 -0.9159756150367534 -0.9159756150367534 -0.12940952255126037 -0.98296291314453399 -0.70710678118654735 1.7005986908310777 1.0000000180025095e-35 4.8559213341406453 1.8688348091416842
decision_type=2 2 2 2 2 2 2 2 2 2 2 2 2 2 2 2 2 2 2 2 2 2 2 2 2 2 2 2 2 2
left_child=2 3 -1 4 9 7 18 -4 15 -2 -11 12 -12 14 -14 -3 -17 -16 19 20 21 26 23 -9 -25 -23 -6 28 -24 -29
right_child=1 8 5 -5 6 -7 -8 22 -10 10 11 -13 13 -15 17 16 -18 -19 -20 -21 -22 25 27 24 -26 -27 -28 29 -30 -31
leaf_value=-1.4362943849974521 -1.4362943849974521 -1.2362943849974521 -1.4362943849974521 -1.4362943849974521 -1.2775147871563124 -1.4362943849974521 -1.4362943849974521 -1.2373939704556784 -1.4362943849974521 -1.4362943849974521 -1.4362943849974521 -1.4362943849974521 -1.4362943849974521 -1.4362943849974521 -1.283372834069922 -1.4362943849974521 -1.2362943849974521 -1.2372118150643689 -1.2367052021356078 -1.4362943849974521 -1.236732118713022 -1.2367021535697487 -1.2364645151363349 -1.237430618674497 -1.4362943849974521 -1.2481112236951963 -1.2644759281549844 -1.2362943849974521 -1.4362943849974521 -1.2373003798935274
leaf_weight=6299.1414903104305 34909.924317121506 10242.438934326172 544.96515244245529 158714.1777357161 288.83853778243065 1335.8029562532902 762.56878173351288 2075.1842211186886 605.21832200884819 2311.9713632464409 236.79493972659111 430.04443082213402 117.08450981974602 191.26140353083611 299.90322875976562 619.68587923049927 2369.5194549560547 1458.9786720573902 6050.8818343579769 273.53254714608192 7047.5469980835915 1531.8454211056232 10939.66977506876 2075.5666528046131 115.7971006333828 1381.0097414255142 355.89243602752686 11694.725051879883 107.46330374479294 11062.443859130144
leaf_count=89720 296878 134 8550 644124 109 11905 11964 206 498 26613 348 6747 181 296 117 173 31 124 274 262 334 69 289 212 216 138 18 153 1686 1017
internal_value=-1.38675 -1.4096 -1.27301 -1.41955 -1.37345 -1.24727 -1.25052 -1.24073 -1.254 -1.42788 -1.36964 -1.31328 -1.29032 -1.2736 -1.25702 -1.24566 -1.27776 -1.24508 -1.24215 -1.24518 -1.24025 -1.24722 -1.23793 -1.24281 -1.24794 -1.24211 -1.27032 -1.23731 -1.23841 -1.23678
internal_weight=276450 230199 46250.8 216362 57648.1 39951.6 17692.1 38615.8 13836.9 39956 5046.04 2734.07 2304.02 2067.23 1875.97 13231.6 2989.21 1758.88 16929.5 10878.7 10605.1 3557.59 38070.8 4266.55 2191.36 2912.86 644.731 33804.3 11047.1 22757.2
internal_count=1103386 989432 113954 988596 344472 24234 13168 12329 836 331304 34426 7813 1066 718 422 338 204 241 1204 930 668 334 3779 634 428 207 127 3145 1975 1170
is_linear=0
shrinkage=1


Tree=3
num_leaves=31
num_cat=0
split_feature=36 43 30 5 6 6 30 19 18 17 18 34 21 18 30 34 36 21 21 19 6 18 1 1 13 36 20 30 36 17
split_gain=489023 56912.6 30919.4 22568.8 17527.5 14895.3 12845.5 11625.5 13051.1 10347.2 9675.65 5884.07 4114.28 3945.45 1861.25 5579.71 6526.87 5556.82 1722.07 1672.69 1494.33 1449.76 1781.42 1755.44 1299.2 1174.06 5915.51 2739.27 1162.06 1151.06
threshold=6.3809692771529329 1.0000000180025095e-35 2.1383330595080281 1.0000000180025095e-35 2.602003343538398 2.3502401828962087 2.249904835165133 2.6735537653587347 1.7005986908310777 3.1567740231385479 5.2755571088971331 2.602003343538398 4.516324041782946 4.6681339642869872 2.524928003624769 1.4978661367769956 5.2337752898422689 3.9219243190762363 5.4827179284163234 1.0000000180025095e-35 2.9174053685313028 1.8688348091416842 -0.70710678118654757 0.60355339059327384 0.89587973461402759 6.5896137628651035 3.9415346756528771 1.4978661367769956 5.040188859666439 3.6762205501217919
decision_type=2 2 2 2 2 2 2 2 2 2 2 2 2 2 2 2 2 2 2 2 2 2 2 2 2 2 2 2 2 2
left_child=1 4 13 11 10 6 18 8 28 -8 14 19 -9 -2 15 16 -1 -18 -4 -3 24 22 -10 -24 25 26 27 -15 -6 -20
right_child=2 3 5 -5 7 -7 9 12 21 -11 -12 -13 -14 20 -16 -17 17 -19 29 -21 -22 -23 23 -25 -26 -27 -28 -29 -30 -31
leaf_value=-1.436294343122289 -1.436294343122289 -1.2384778854827232 -1.436294343122289 -1.436294343122289 -1.436294343122289 -1.4122004053140667 -1.2396643589032441 -1.2362943497783085 -1.262150983680399 -1.4062538804463562 -1.2362943497783085 -1.436294343122289 -1.436294343122289 -1.436294343122289 -1.4361274396159212 -1.429155082635428 -1.2431103398600427 -1.436294343122289 -1.2429300850288416 -1.436294343122289 -1.436294343122289 -1.436294343122289 -1.4181177315877986 -1.2634154207029553 -1.436294343122289 -1.2405952126037927 -1.436294343122289 -1.2478296453613116 -1.2380530630281792 -1.436294343122289
leaf_weight=1638.5922969579697 272.16388314962387 6200.0732132792473 120.78467413783073 2267.5012044608593 78.525972843170166 3954.5706068575382 1286.116882443428 1902.0416293144226 250.94491210579872 3386.3918104767799 630.43187713623047 414.81090199947357 297.3406358063221 196.63362517952919 124476.68543213606 64422.456066042185 1294.2248774766922 522.52916020154953 5705.582609474659 108.73807603120804 102.30047598481178 4627.5508769154549 1891.8373256027699 203.05304718017578 88.596673905849457 38419.262592375278 452.48042306303978 9898.4329506456852 1261.2082752585411 78.016063928604126
leaf_count=25708 4270 2774 1895 35575 1232 20283 693 531 570 12551 176 6508 4665 3085 326831 519971 1041 8198 4510 1706 1605 72602 671 481 1390 23457 7099 11561 523 1224
internal_value=-1.38651 -1.42299 -1.2653 -1.29988 -1.42843 -1.32941 -1.29846 -1.36556 -1.3926 -1.3604 -1.43185 -1.25388 -1.26333 -1.24645 -1.4325 -1.42584 -1.36394 -1.29867 -1.24944 -1.24189 -1.2454 -1.42006 -1.38804 -1.40312 -1.245 -1.24465 -1.25943 -1.2515 -1.24967 -1.24554
internal_weight=276450 212489 63961.3 8991.12 203497 14531.5 10576.9 10512.5 8313.12 4672.51 192985 6723.62 2199.38 49429.9 192354 67877.8 3455.35 1816.75 5904.38 6308.81 49157.7 6973.39 2345.84 2094.89 49055.4 48966.8 10547.5 10095.1 1339.73 5783.6
internal_count=1103386 1009763 93623 46563 963200 41156 20873 81275 76079 13244 881925 10988 5196 52467 881749 554918 34947 9239 7629 4480 48197 74324 1722 1152 46592 45202 21745 14646 1755 5734
is_linear=0
shrinkage=1


Tree=4
num_leaves=31
num_cat=0
split_feature=18 21 30 18 10 37 6 30 30 8 6 24 36 18 24 5 18 24 21 20 6 5 52 5 26 27 15 24 18 29
split_gain=61378.5 249041 68365 41783.6 27586.8 25534.1 18647.9 14425.2 13880.8 12556.3 11539.3 10051.1 7671.88 7460.33 6582.87 5994.99 5846.77 5431.7 4537.24 13022.2 4069.3 3504.93 6448.73 3404.66 2971.41 2152.15 11577.5 4323.93 3905.9 2109.33
threshold=4.6586997221347959 3.795426061844291 2.602003343538398 3.7012257604091228 1.0000000180025095e-35 1.0000000180025095e-35 2.602003343538398 2.9700856263602158 2.3502401828962087 0.89587973461402759 1.4978661367769956 1.7005986908310777 5.3156629864430025 2.9174053685313028 3.3842466058243152 1.2424533248940004 1.4978661367769956 3.1567740231385479 4.2835627800822236 3.3140206880897671 2.602003343538398 1.0000000180025095e-35 1.0000000180025095e-35 1.4978661367769956 1.0000000180025095e-35 0.89587973461402759 1.4978661367769956 3.0201273556387074 4.8481086751891054 0.89587973461402759
decision_type=2 2 2 2 2 2 2 2 2 2 2 2 2 2 2 2 2 2 2 2 2 2 2 2 2 2 2 2 2 2
left_child=1 2 3 6 14 10 9 -6 11 -1 -4 -2 16 -11 18 -8 -12 -10 19 21 -21 22 29 25 -18 26 27 -13 -28 -3
right_child=8 4 5 -5 7 -7 15 -9 17 13 12 23 -14 -15 -16 -17 24 -19 -20 20 -22 -23 -24 -25 -26 -27 28 -29 -30 -31
leaf_value=0.12997853487258848 0.13018243945850635 -0.02697016803993614 0.12991781569469438 -0.046269064629365309 0.12960721385082893 0.12983169124005797 -0.042944326775051805 -0.045576959405159677 0.13024383194701836 0.13059833996845535 0.13009207025407396 0.1307752016715592 0.13265055405968149 -0.045673862753338713 -0.037241246397678639 0.13153566908543887 -0.047566995830096187 -0.045450765903979166 0.12995368340340688 0.1297945708049964 -0.046767872814317019 0.13031868593245396 0.13023446616810991 0.1312141771737447 0.1336372302087106 -0.045831636659806274 0.13090113274840848 -0.020812144522676646 -0.040751768383870873 0.13065592444887814
leaf_weight=13494.040981009603 879.64104773104191 1347.3146607279778 949.0435635894537 8312.8264052271843 1621.2260058969259 2167.3022632524371 3061.8838102966547 4270.2481373846531 1739.3831758052111 893.93997313827276 467.45623301714659 1470.9732234105468 602.37662947922945 1827.0326077342033 681.81657797843218 586.63004567474127 99204.479730900377 588.82315801456571 32701.163239173591 397.80081677436829 1816.4659111127257 10392.743021182716 2166.3407214209437 290.29776902496815 226.75518991798162 56599.012410618365 336.01814863085747 691.60938614606857 24138.439524196088 251.92628885060549
leaf_count=193385 12618 2768 13597 2257 23194 31039 2041 2425 24957 12849 6703 21158 8742 1033 867 8469 14363 340 468597 5696 864 149181 31084 4184 3306 24130 4836 1728 22812 3622
internal_value=0.000150494 0.0162431 -0.0212064 0.0478515 0.104938 -0.0399851 0.0872407 0.00263052 -0.0346272 0.110221 -0.043613 -0.0379493 -0.0452516 0.0122381 0.117052 -0.0148904 -0.0463244 0.0858092 0.119196 0.0977096 -0.0150478 0.115344 0.0740153 -0.0397199 -0.0471538 -0.0403161 -0.0285965 0.0822965 -0.0383951 -0.00213954
internal_weight=274175 187441 131794 28176.4 55647 103617 19863.5 5891.47 86734.2 16215 101450 84406 100501 2720.97 49755.6 3648.51 99898.7 2328.21 49073.8 16372.6 2214.27 14158.3 3765.58 83526.4 99431.2 83236.1 26637 2162.58 24474.5 1599.24
internal_count=1102845 986082 297784 220034 688298 77750 217777 25619 116763 207267 46711 91466 33114 13882 662679 10510 24372 25297 661812 193215 6560 186655 37474 78848 17669 74664 50534 22886 27648 6390
is_linear=0
shrinkage=0.05


Tree=5
num_leaves=31
num_cat=0
split_feature=30 15 35 6 9 8 21 23 1 5 1 0 27 1 20 0 6 6 5 6 20 6 9 1 1 1 14 23 5 9
split_gain=317832 186365 75504.2 37191.3 16934.5 16097.4 15568.4 12094.2 4130.38 3635.42 3177.69 2773.52 1728.48 60.3065 10.1302 3.79336 3.69741 3.52584 0.227859 0.191842 0.191301 0.0763959 0.0353978 0.0341139 0.040201 0.0312195 0.0264156 0.0159766 0.0147711 0.0138581
threshold=2.9174053685313028 0.89587973461402759 2.8617925509761908 2.4414009612931857 1.4978661367769956 1.0000000180025095e-35 3.6762205501217919 2.0126758453675748 -0.70710678118654757 1.0000000180025095e-35 0.78656609248549303 -0.9159756150367534 1.0000000180025095e-35 -0.5 2.524928003624769 -0.78656609248549292 2.3502401828962087 2.3502401828962087 0.89587973461402759 2.3502401828962087 2.524928003624769 2.3502401828962087 1.0000000180025095e-35 -0.9159756150367534 -0.12940952255126037 0.98296291314453421 1.0000000180025095e-35 1.4978661367769956 1.4978661367769956 1.2424533248940004
decision_type=2 2 2 2 2 2 2 2 2 2 2 2 2 2 2 2 2 2 2 2 2 2 2 2 2 2 2 2 2 2
left_child=2 6 3 -1 -4 7 9 -6 -9 20 11 21 -5 17 23 16 -15 -13 -16 -17 -2 -10 -20 -11 -25 -26 -22 -3 -29 -28
right_child=1 27 4 12 5 -7 -8 8 10 14 -12 13 -14 15 18 19 -18 -19 22 -21 26 -23 -24 24 25 -27 29 28 -30 -31
leaf_value=-0.049148665925984221 -0.049128889360376841 -0.049152456214458233 -0.049147747128127507 -0.049080691973658296 -0.049136889175769721 -0.049147138548866515 -0.049245088332192224 -0.049862502133968853 -0.051694557327007729 0.12772915316928893 -0.049861265400927106 0.12055610168587821 0.12945880318746653 0.13656967130619888 0.1294862186227092 0.13064516865623169 0.13075558032589701 0.11494630264332886 0.12978031152161459 0.12972881623232463 -0.052536371872194711 -0.049862893302431689 0.12967420679520894 0.12809999666615296 0.12782411562100038 0.12820011359656133 -0.049140286613363067 -0.049140286613363067 -0.051714023933148778 -0.05170095332913565
leaf_weight=4263.5277285687625 202.60288980230689 20422.654101625085 163501.49471538886 137.43649080768228 1921.908040985465 6482.5051483772695 1256.4395437501371 442.21360072493553 110.35338878631592 1484.4215702265501 294.45610409229994 618.95699977874756 9937.4179192334414 569.11319732666016 10053.599558964372 1169.4187927246094 526.34716366603971 511.62116510793567 29703.552536010742 1116.450002130121 60.04784033447504 117.58399511501193 10689.073059082031 4147.7060301788151 3620.0511600486934 651.41391900926828 10.077778145670891 10.630826946347952 11.721389226615429 11.107002191245556
leaf_count=50704 3299 56241 913432 2243 21290 29619 20357 353 29 286 230 19 347 10 343 20 43 89 506 93 865 144 182 662 667 98 164 173 173 164
internal_value=-0.000438892 0.081727 -0.0357253 0.0746384 -0.0446463 0.00837526 0.124963 0.0587764 0.0966472 0.128573 0.109517 0.119418 0.127023 0.128014 0.129412 0.131357 0.133776 0.118017 0.129699 0.130198 -0.0499508 -0.0507497 0.129752 0.12795 0.127989 0.127881 -0.0520008 -0.0491539 -0.0504899 -0.0504828
internal_weight=274056 82335.1 191721 14338.4 177382 13880.9 61890.1 7398.42 5476.51 60633.7 5034.3 4739.84 10074.9 4511.91 60349.8 3381.33 1095.46 1130.58 50446.2 2285.87 283.836 227.937 40392.6 9903.59 8419.17 4271.47 81.2326 20445 22.3522 21.1848
internal_count=1102845 84180 1018665 53294 965371 51939 27593 22320 1030 7236 677 447 2590 274 2744 166 53 108 1031 113 4492 173 688 1713 1427 765 1193 56587 346 328
is_linear=0
shrinkage=0.05


Tree=6
num_leaves=31
num_cat=0
split_feature=21 27 5 34 27 18 35 1 36 20 28 2 0 0 1 1 0 1 0 0 1 1 0 0 0 29 15 6 15 5
split_gain=241775 143604 71590.1 77603 65860.9 43786.7 16489.2 4400.17 3595.23 8633.61 3084.92 1950.72 1897.23 1991.05 1571.65 478.293 3179.31 113.833 2551.78 58.1141 185.408 735.546 26.4691 34.523 24.7749 7.51815 3.73253 3.09336 1.52375 0.8553
threshold=3.0677824455408698 2.3502401828962087 1.2424533248940004 2.4414009612931857 1.0000000180025095e-35 4.1820210059610323 3.3140206880897671 -0.78656609248549325 5.0657496176235997 2.3502401828962087 1.0000000180025095e-35 0.87837969732492682 0.60355339059327384 -0.78656609248549292 0.37940952255126026 0.60355339059327384 -0.60355339059327362 -0.78656609248549325 0.25881904510252091 -0.9159756150367534 1.0000000180025095e-35 -0.12940952255126037 -0.9159756150367534 -0.98296291314453399 0.78656609248549325 1.2424533248940004 1.0000000180025095e-35 2.1383330595080281 1.0000000180025095e-35 1.4978661367769956
decision_type=2 2 2 2 2 2 2 2 2 2 2 2 2 2 2 2 2 2 2 2 2 2 2 2 2 2 2 2 2 2
left_child=4 2 8 5 -1 -4 10 -3 9 -2 22 17 13 14 -11 -9 -17 18 -7 20 21 28 23 -6 -14 -24 -21 -25 -19 -20
right_child=1 7 3 -5 6 11 -8 15 -10 12 -12 -13 24 -15 -16 16 -18 19 29 26 -22 -23 25 27 -26 -27 -28 -29 -30 -31
leaf_value=-0.049172073719963599 -0.049133042333762936 -0.049937012935128672 -0.049144899627915697 -0.049130552411246822 0.1293368253248576 -0.050668206628900953 -0.049164695674401432 0.12967495472405952 -0.049151991950627805 -0.05009358545499748 -0.049242321054342404 -0.049893660827523258 0.10850853897942553 -0.049216816443570913 0.12790943038376776 0.12969033057440216 -0.049936536432372128 0.1185592538907673 0.12822625869772972 0.13013917040460452 0.12930749678455863 -0.0519781100822619 0.12821035929015492 0.12230223621541447 0.12866846386297279 0.12971431386890192 0.12836229320595008 0.11842592995448645 0.1136192045427972 0.12991703995859746
leaf_weight=6450.9270133711398 4833.2040120363235 362.14320141077042 4571.5102222301066 18700.708692289889 2686.8542517907917 211.0254518724978 1361.2296268418431 13662.431719951332 160484.51403309405 164.03198622539639 244.99044140055776 159.21251638233662 190.68121941387653 475.49406000226736 508.18153307586908 1676.228313729167 288.7753783389926 357.9079442024231 1352.0571400336921 6187.8282928466797 1847.8153354935348 72.237751066684723 12842.512082457542 1835.2310054674745 759.01798318326473 23542.762321472168 5657.8204812146723 715.26780465245247 276.83093606680632 1674.0884399414062
leaf_count=85605 60193 287 74387 170171 138 372 22133 475 678143 528 3970 246 134 1474 122 56 237 11 224 74 126 121 1876 60 130 281 905 226 120 20
internal_value=4.71403e-05 -0.0220423 -0.0331176 0.0260386 0.0998565 0.0888827 0.122096 0.122365 -0.0476293 -0.0123706 0.127664 0.124338 0.0723437 0.0290858 0.0844735 0.126358 0.103293 0.125911 0.117439 0.127815 0.120976 0.0991996 0.128705 0.125382 0.124621 0.129183 0.12929 0.121215 0.116405 0.129162
internal_weight=274154 224474 208484 41069 49679.8 22368.3 43228.8 15989.6 167415 6930.61 41867.6 17796.8 2097.41 1147.71 672.214 15627.4 1965 17637.6 3237.17 14400.4 2554.79 706.977 41622.6 5237.35 949.699 36385.3 11845.6 2550.5 634.739 3026.15
internal_count=1102845 988556 987501 246777 114289 76606 28684 1055 740724 62581 6551 2219 2388 2124 650 768 293 1973 616 1357 378 252 2581 424 264 2157 979 286 131 244
is_linear=0
shrinkage=0.05


Tree=7
num_leaves=31
num_cat=0
split_feature=36 10 6 34 15 17 21 24 18 34 18 27 4 6 21 8 20 52 14 18 0 0 36 0 36 17 24 15 18 18
split_gain=421331 51909.6 16412.1 15124.4 13766.8 18717.9 9397.02 9292.5 8017.35 6555.29 7413.28 6364.71 4518.7 4292.26 4509.19 4089.03 4885.82 2474.27 2012.49 1406.91 1359.5 2533.95 5129.36 1363.55 1575.96 1218.1 1212.03 5347.55 2329.17 1683.72
threshold=6.3809692771529329 1.0000000180025095e-35 2.602003343538398 2.524928003624769 1.2424533248940004 3.3497501700808394 4.2835627800822236 3.3842466058243152 5.2755571088971331 3.1567740231385479 1.7005986908310777 1.2424533248940004 1.0000000180025095e-35 2.602003343538398 5.4004200416950168 0.89587973461402759 3.4175922930736511 1.0000000180025095e-35 1.4978661367769956 4.6681339642869872 0.60355339059327384 -0.70710678118654735 6.72623268350885 -0.9159756150367534 6.72623268350885 2.9700856263602158 2.740319461670996 1.4978661367769956 5.0782890901091458 4.8481086751891054
decision_type=2 2 2 2 2 2 2 2 2 2 2 2 2 2 2 2 2 2 2 2 2 2 2 2 2 2 2 2 2 2
left_child=1 2 7 12 5 11 9 8 -1 10 -4 -2 17 18 -15 16 -7 -3 19 -6 21 23 -23 24 -18 -13 27 -21 29 -29
right_child=4 3 6 -5 13 15 -8 -9 -10 -11 -12 25 -14 14 -16 -17 20 -19 -20 26 -22 22 -24 -25 -26 -27 -28 28 -30 -31
leaf_value=-0.045963886282011687 -0.050103865405277406 0.12371954269929725 0.11905135868473463 -0.049165579776780412 -0.049315925845062066 0.12340077639748299 -0.049143892019249555 0.1430890885205065 0.12970885883788855 0.12867460935680639 -0.017462642171234399 -0.051970506644903117 -0.049140892033371214 0.12548397548924223 -0.049729991959326675 0.12693189050557477 -0.049776702807445616 -0.049140892033371214 -0.05090013034488261 -0.049934408326195057 -0.049471081940099804 -0.049777329073336228 0.14548844431709559 -0.043513451592329652 0.14789231420348081 0.12919339509264319 0.12665605501864488 -0.050493652821240124 -0.051276416326281209 0.1219552106712468
leaf_weight=184093.22747862339 539.60264701023698 7023.9960471056402 1398.6494433917105 1873.3805054947734 118.99033071473241 688.83259681984782 3275.7779596485198 656.59605856239796 651.77388191223145 2049.4152555093169 3441.4500474222004 93.851608455181122 424.93742069229484 712.59154465794563 757.57944251596928 666.205516718328 188.25379110500216 213.29830617830157 168.05061323568225 513.03618220984936 2116.3098395355046 622.4456214569509 731.63414646685123 2251.2582564242184 217.14158859848976 8168.3780702203512 40871.825644787401 143.72795948386192 204.37183340638876 9310.2878343127668
leaf_count=880888 8477 5532 1679 30454 1922 649 53300 518 166 693 25872 1379 6915 521 12048 344 2990 3471 2567 8101 2047 9886 286 3031 88 2935 21929 2223 3074 8860
internal_value=0.00024106 -0.0357308 -0.0412852 0.0781844 0.107037 0.0668451 0.0205737 -0.0446768 -0.0453441 0.0537225 0.021986 0.11627 0.109321 0.119432 0.0351962 0.00870247 -0.00285365 0.118625 0.121845 0.122412 -0.0170478 6.07208e-05 0.0557284 -0.0283127 0.0561006 0.127136 0.122812 0.107368 0.115723 0.119333
internal_weight=274187 205103 195567 9535.61 69084.4 16283.9 10165.3 185402 184745 6889.51 4840.1 8801.83 7662.23 52800.5 1470.17 7482.08 6815.88 7237.29 51330.3 51162.2 6127.04 4010.73 1354.08 2656.65 405.395 8262.23 51043.2 10171.4 9658.39 9454.02
internal_count=1102845 1009488 963116 46372 93357 32112 81544 881572 881054 28244 27551 12791 15918 61245 12569 19321 18977 9003 48676 46109 18328 16281 10172 6109 3078 4314 44187 22258 14157 11083
is_linear=0
shrinkage=0.05


Tree=8
num_leaves=31
num_cat=0
split_feature=18 21 18 6 10 21 4 26 5 24 24 12 17 34 29 12 24 19 19 21 29 17 46 35 4 21 21 5 35 35
split_gain=55426.3 210950 50996.1 24291.9 21870.5 18071.1 15406.2 11749 10004.1 9348.61 9166.37 20991.8 8365.83 7830.8 6469.84 5735.25 5192.69 4936.62 4712.84 10244.7 4237.93 3026.3 2525.95 2481.48 2152.25 11726.3 3830.96 3190.27 2634.94 2150.09
threshold=4.6586997221347959 3.795426061844291 1.4978661367769956 1.4978661367769956 1.0000000180025095e-35 2.602003343538398 0.89587973461402759 1.0000000180025095e-35 1.0000000180025095e-35 1.8688348091416842 2.602003343538398 1.0000000180025095e-35 3.3497501700808394 1.2424533248940004 0.89587973461402759 0.89587973461402759 3.3842466058243152 1.8688348091416842 2.6735537653587347 4.4127799275304271 1.0000000180025095e-35 1.2424533248940004 1.0000000180025095e-35 2.740319461670996 1.0000000180025095e-35 3.6762205501217919 3.7256208424938388 1.2424533248940004 3.2769667020129059 3.3842466058243152
decision_type=2 2 2 2 2 2 2 2 2 2 2 2 2 2 2 2 2 2 2 2 2 2 2 2 2 2 2 2 2 2
left_child=1 2 -1 -4 16 -5 7 9 21 13 11 -2 14 -7 22 17 18 20 29 -20 -15 -6 -13 -22 26 -26 27 -25 -27 -3
right_child=10 4 3 5 8 6 -8 -9 -10 -11 -12 12 -14 15 -16 -17 -18 -19 19 -21 23 -23 -24 24 25 28 -28 -29 -30 -31
leaf_value=0.11502536086100468 0.11804821856011719 0.083427665649406291 0.1153791928261198 0.11499520262606258 0.12204931082318116 0.11743920753345023 0.11542273917161881 0.11667719904055224 0.1154511854011297 0.11642410020550437 -0.042702908529599681 -0.043273281291053636 0.12842046420050521 0.11740338910746428 0.11699356466721239 0.1149588049129508 -0.036127393110049554 0.12192259564658184 -0.031813776201596831 0.11467594745296593 0.11646928269718103 -0.045887623562156143 0.12046040240599697 -0.046073304017535038 0.11517119595771504 0.11675135258324305 0.12288680076183345 0.1212989192638802 -0.044075885042700665 0.11493094605360132
leaf_weight=6593.9062932766974 3002.6495109722018 6242.4394600950181 2894.9826436787844 2076.7780794203281 286.85648489370942 794.33447644859552 1704.5331121385098 1246.4097427204251 1472.5242700390518 975.8583832681179 63908.167577769607 14798.806055869907 836.59919869527221 417.46598378568888 680.13824707269669 593.16641984879971 652.34132046252489 463.43727849423885 1899.9621668383479 3209.8729386329651 245.85608704388142 4138.528771713376 239.36282275617123 97866.46683909744 1368.4494360908866 260.98513431474566 338.59575265645981 285.53918993473053 10539.227081738412 40913.970771089196
leaf_count=88285 40796 67810 38825 27802 3975 10756 22863 16818 19756 13152 43432 8327 11943 5653 9191 7939 857 6417 3091 42906 3314 2084 3292 20926 18334 3524 4702 3939 4280 547549
internal_value=0.000356472 0.0154454 -0.0204135 -0.0277294 0.0938897 -0.0312057 -0.0337986 -0.0360028 0.0025616 -0.0376699 -0.0335366 -0.00358396 -0.025645 -0.0389986 -0.0338451 -0.0401044 0.104068 -0.0409272 0.105818 0.0602075 -0.0416051 -0.0350018 -0.0406671 -0.0422037 -0.0425562 -0.0227181 -0.0450072 -0.0455864 -0.0401895 0.110761
internal_weight=270948 187482 128666 122072 58816.5 119177 117100 115396 5897.91 114149 83465.7 19557.6 16554.9 113174 15718.3 112379 52918.6 111786 52266.2 5109.84 111323 4425.39 15038.2 110905 110659 12168.7 98490.6 98152 10800.2 47156.4
internal_count=1102538 985557 297529 209244 688028 170419 142617 119754 25815 102936 116981 73549 32753 89784 20810 79028 662213 71089 661356 45997 64672 6059 11619 59019 55705 26138 29567 24865 7804 615359
is_linear=0
shrinkage=0.05


Tree=9
num_leaves=31
num_cat=0
split_feature=30 15 35 6 9 8 21 36 36 1 27 0 0 1 5 8 1 21 9 5 18 5 5 15 19 16 35 35 27 20
split_gain=277911 149275 68592 31191.5 16919.1 14963.2 12492.7 10667.4 3538.49 3297.38 1384.7 457.174 5.10036 2688.87 0.553718 1.73208 0.551636 0.250049 0.14536 0.131221 0.128622 0.0572641 0.0382472 0.0365227 0.0364897 0.301731 0.140384 0.0371546 0.0509389 0.0354331
threshold=2.9174053685313028 0.89587973461402759 2.8617925509761908 2.4414009612931857 1.4978661367769956 1.0000000180025095e-35 3.6762205501217919 6.72623268350885 5.2337752898422689 -0.70710678118654757 1.0000000180025095e-35 0.60355339059327384 -0.78656609248549292 0.37940952255126026 0.89587973461402759 1.0000000180025095e-35 -0.3794095225512602 3.5972184255501678 1.0000000180025095e-35 1.0000000180025095e-35 3.7012257604091228 1.0000000180025095e-35 0.89587973461402759 3.2156655409667398 1.0000000180025095e-35 1.2424533248940004 3.4175922930736511 3.1984648276080736 1.0000000180025095e-35 2.740319461670996
decision_type=2 2 2 2 2 2 2 2 2 2 2 2 2 2 2 2 2 2 2 2 2 2 2 2 2 2 2 2 2 2
left_child=2 6 3 20 23 7 8 -6 18 -9 -5 12 13 16 15 -10 -11 -16 22 -14 -1 -18 -2 24 25 27 -27 28 -4 -20
right_child=1 -3 4 10 5 -7 -8 9 14 11 -12 -13 19 -15 17 -17 21 -19 29 -21 -22 -23 -24 -25 -26 26 -28 -29 -30 -31
leaf_value=-0.048351952347955085 -0.05266307357969046 -0.048352659980759417 -0.048402308310759125 -0.048427748324419824 -0.048378854271919229 -0.048342388732572739 -0.048444273320977178 -0.049012287793605343 0.11393540926170603 -0.054713336576267327 0.11453628111483449 0.1158892206153037 0.08907624777075776 0.1182358727462316 0.1147839503505681 0.11485667346568813 -0.050669730777018765 0.1145018633320149 -0.048480681865751309 0.088161678366090901 -0.049146481952696074 -0.049015579765364442 -0.050409284914734821 -0.049533348854990333 -0.048345698067088889 -0.049738406923065435 -0.048298414314939739 -0.048344591385280619 -0.04881415050286133 -0.050548392897679387
leaf_weight=3569.9171675555408 24.881448999047279 19053.236460056156 2599.6421124190092 131.9576003216207 1858.7853074707091 6241.1867066845298 1209.4083142243326 401.69158673286438 10106.103852473199 82.367220878601074 10698.97885710001 2376.394115447998 746.41424417495728 1175.613452911377 32869.652935028076 10303.757102966309 110.24439096450806 10323.231411829591 205.34347483515739 826.46385955810547 594.14692783355713 99.579743146896362 77.322353072464466 65.789203677326441 136813.30885941908 613.45635478943586 233.74384110793471 16019.872313462198 1055.706069521606 23.044182054698467
leaf_count=50468 357 56430 33856 2223 22007 29523 20353 117 852 20 334 38 45 19 523 164 30 339 3450 51 172 29 1194 1053 735679 510 3962 130756 7630 354
internal_value=-0.000639241 0.0747499 -0.0347077 0.0678372 -0.043683 0.00915652 0.110756 0.0558981 0.113767 0.0892091 0.112551 0.0994586 0.0866175 0.0844977 0.114615 0.114401 -0.0512459 0.114717 -0.0493907 0.0885957 -0.0484653 -0.0498847 -0.050958 -0.0483555 -0.048355 -0.0484172 -0.0493411 -0.0483774 -0.0485213 -0.0486893
internal_weight=270511 84196 186315 14995 171320 13918.7 65142.7 7677.55 63933.3 5818.77 10830.9 5417.08 3040.68 1467.8 63602.7 20409.9 292.191 43192.9 330.591 1572.88 4164.06 209.824 102.204 157402 157336 20522.4 847.2 19675.2 3655.35 228.388
internal_count=1102538 84016 1018522 53197 965325 51879 27586 22356 7233 349 2557 232 194 98 1878 1016 79 862 5355 96 50640 59 1551 913446 912393 176714 4472 172242 41486 3804
is_linear=0
shrinkage=0.05


Tree=10
num_leaves=31
num_cat=0
split_feature=36 25 30 34 18 36 19 4 4 6 18 36 0 0 0 0 0 0 0 0 0 0 0 30 30 8 20 20 8 34
split_gain=200702 105829 67151.5 62039.4 108729 6947.45 6142.53 5926.84 5533.19 5050.29 3295.26 2045.06 846.97 2143.11 878.809 740.778 5814.05 59.9757 2988.39 36.3709 32.2955 38.2723 27.1052 24.236 4.69204 3.91536 0.971552 0.6462 0.572559 0.442017
threshold=4.9870196042435371 0.89587973461402759 2.740319461670996 2.4414009612931857 4.1820210059610323 5.8763332563158359 1.4978661367769956 1.0000000180025095e-35 1.0000000180025095e-35 2.0126758453675748 1.4978661367769956 5.0845003501084243 0.60355339059327384 -0.78656609248549292 -0.9159756150367534 -0.60355339059327362 0.60355339059327384 0.25881904510252091 -0.25881904510252113 -0.9159756150367534 -0.9159756150367534 -0.98296291314453399 -0.5 2.8617925509761908 2.8617925509761908 1.0000000180025095e-35 0.89587973461402759 0.89587973461402759 1.0000000180025095e-35 1.8688348091416842
decision_type=2 2 2 2 2 2 2 2 2 2 2 2 2 2 2 2 2 2 2 2 2 2 2 2 2 2 2 2 2 2
left_child=2 3 -1 4 6 17 -2 15 -8 -4 -11 12 13 14 -10 -3 -17 18 19 25 21 29 -21 -23 -22 -6 -25 -26 -24 -12
right_child=1 7 9 -5 5 -7 8 -9 11 10 20 -13 -14 -15 -16 16 -18 -19 -20 22 24 23 28 26 27 -27 -28 -29 -30 -31
leaf_value=-0.048366723834303273 -0.048419702529543529 0.11496188885355943 -0.048642188240587192 -0.048341278223630976 0.1048716981968721 -0.048498810868083789 -0.048336798712451633 -0.048336026882730088 -0.049629802190001501 -0.048324449057690094 0.11463853739361206 -0.048324687661911087 0.11161232096641603 -0.049015669714311288 0.10782377738286333 -0.049919678553954384 0.11496202167766741 0.11466586752802077 -0.049853362074608949 0.11484716414206333 0.11341393362774455 0.095646212425940458 0.10761383284441405 0.10900432182688501 0.11482984390990614 0.10886854543980024 0.10671591796286842 0.11433332537821606 0.10928458861758575 0.11322288390304405
leaf_weight=7775.9234780408442 29973.207371488214 11200.022644042969 491.24231960996985 146683.38501669466 1240.928845398128 709.77965299412608 2110.2800402827561 629.05642070993781 99.012438077479601 316.00647626072168 1705.3470406457782 377.65674230828881 1008.7444800101221 382.49080030247569 844.27222109586 628.39825987815857 3584.005126953125 6463.0498924180865 290.35387387126684 8520.5735981166363 12929.722691640258 507.41083036363125 1030.8750754967332 1022.6064405441284 12910.071533203125 1210.4145617485046 848.78144274279475 13307.70167138055 1020.3155682086945 814.87652404606342
leaf_count=111677 256972 125 8213 669623 178 11925 25980 704 143 5348 48 6392 96 521 96 176 40 262 279 340 1859 260 115 21 144 26 98 715 20 142
internal_value=-0.000354907 -0.0215109 0.087279 -0.0313288 0.0138114 0.105198 -0.0399932 0.102099 0.0123805 0.110795 0.11256 0.0596232 0.0770861 0.050816 0.0912966 0.108239 0.0903653 0.110714 0.108795 0.112333 0.113714 0.109887 0.113605 0.105338 0.114193 0.106845 0.107966 0.114578 0.108445 0.114181
internal_weight=270637 218007 52629.7 201965 55282 20486.3 34795.7 16041.5 4822.46 44853.8 44362.5 2712.18 2334.52 1325.78 943.285 15412.4 4212.4 19776.5 13313.5 13023.1 44046.5 4899.02 10571.8 2378.8 39147.5 2451.34 1871.39 26217.8 2051.19 2520.22
internal_count=1102538 974013 128525 972968 303345 13145 290200 1045 33228 16848 8635 7248 856 760 239 341 216 1220 958 679 3287 569 475 379 2718 204 119 859 135 190
is_linear=0
shrinkage=0.05


Tree=11
num_leaves=31
num_cat=0
split_feature=36 10 30 5 19 21 24 27 36 24 30 16 34 35 24 30 35 20 34 36 16 34 21 19 21 24 14 30 19 0
split_gain=361861 47594.4 19110.8 15432 7795.29 11667 8050.63 5005.9 4794.08 4126.12 4100.51 6979.74 3813.88 3280.31 3134.64 3122.52 5148.77 6908.57 5862.33 6810.84 4047.74 5264.98 2481.96 2035.43 1956.3 1804.94 1718.84 1523 1066.83 956.8
threshold=6.3809692771529329 1.0000000180025095e-35 2.249904835165133 1.0000000180025095e-35 2.6735537653587347 4.4127799275304271 2.740319461670996 1.0000000180025095e-35 6.2869283273353256 1.7005986908310777 2.1383330595080281 2.0126758453675748 2.602003343538398 4.8559213341406453 3.5114340430413216 2.524928003624769 3.4175922930736511 2.0126758453675748 1.4978661367769956 5.2337752898422689 1.0000000180025095e-35 2.3502401828962087 3.9796379800581989 1.7005986908310777 4.0859410030639109 2.4414009612931857 1.4978661367769956 2.6735537653587347 1.0000000180025095e-35 0.60355339059327384
decision_type=2 2 2 2 2 2 2 2 2 2 2 2 2 2 2 2 2 2 2 2 2 2 2 2 2 2 2 2 2 2
left_child=1 4 9 12 6 27 15 13 -8 -2 26 14 28 -4 -12 16 17 18 19 -1 -19 24 -21 -10 -22 -13 -11 -6 -3 -23
right_child=2 3 7 -5 5 -7 8 -9 23 10 11 25 -14 -15 -16 -17 -18 20 -20 22 21 29 -24 -25 -26 -27 -28 -29 -30 -31
leaf_value=-0.048372784140096374 -0.048828923276301846 0.1136004909314631 -0.049106770580991277 -0.048537178045978562 -0.048447541191089488 -0.048422104662245911 -0.048466538161521966 -0.024292157074758371 0.1172783513919 0.10946765856954153 -0.011658515665220675 -0.049986301882327694 -0.048561946444431035 0.11060678489217611 0.10375595025118418 -0.048180742359245278 -0.044516134897940041 -0.048456992611253878 -0.045254019085647065 0.12600231324141009 0.12076189195022868 0.025067008195820747 -0.048625280345169587 -0.048993910856793992 -0.048538478027446902 0.10924776517275836 -0.050688931290453654 0.11466361866352182 -0.048336780172170316 -0.042975507228327617
leaf_weight=1437.1877049542964 444.87205236032605 7436.8827590942383 412.69757384061813 2114.4999392330647 153.28110296651721 2762.4362852014601 871.90957716107368 3887.5601405650377 1454.973704777658 57356.477475561202 2548.9427144788206 183.29482385516167 392.07183058187366 1454.7440150268376 764.84154673665762 113894.09991769493 43751.770823698491 1214.4059978425503 13684.79469107464 1403.6903646886349 2118.8400214090943 1332.5610782168806 237.96958680078387 210.71430901437998 185.5758840739727 6118.4002308547497 168.01833037659526 2156.9205980300903 103.11549794301391 843.81460865959525
leaf_count=24266 7377 2799 6745 35467 2578 46525 14652 21194 1053 43486 2585 2916 6565 1029 894 344091 393263 20417 99239 843 1557 2451 3971 3474 3108 4835 2594 513 1744 307
internal_value=0.000635877 -0.0345424 0.0954943 0.0714849 -0.040217 0.0209223 -0.0419151 0.00802799 0.0465223 0.102942 0.103948 0.0737248 0.10348 0.0753107 0.0149798 -0.0431611 -0.0345264 -0.0150656 -0.0312292 0.0311078 0.0325118 0.0544563 0.100689 0.0962444 0.107128 0.104616 0.109 0.103841 0.111386 -0.00131413
internal_weight=271101 197762 73339.8 10046.6 187715 5072.64 182642 5755 2537.6 67584.8 67140 9615.48 7932.07 1867.44 3313.78 180105 66210.6 22458.8 16763.6 3078.85 5695.2 4480.79 1641.66 1665.69 2304.42 6301.7 57524.5 2310.2 7540 2176.38
internal_count=1102538 1008883 93655 46575 962308 49616 912692 28968 19179 64687 57310 11230 11108 7774 3479 893513 549422 156159 128319 29080 27840 7423 4814 4527 4665 7751 46080 3091 4543 2758
is_linear=0
shrinkage=0.05


Tree=12
num_leaves=31
num_cat=0
split_feature=18 36 30 11 18 4 19 30 6 9 24 6 18 18 18 24 19 36 24 36 5 26 30 27 36 29 48 36 27 6
split_gain=50617.7 138040 84387.6 42379.4 23821.7 20322.6 14129.9 11244.2 9787.48 11611.6 7903.53 7153.47 6185.24 4783.18 4678.58 4136.17 4310.21 7992.67 3949.51 3607.04 2742.93 2317.46 2281.31 2165.89 9168.91 4151.75 2116.97 2011.51 1846.08 1701.73
threshold=4.6586997221347959 5.3156629864430025 2.602003343538398 1.0000000180025095e-35 3.7494348669884658 1.0000000180025095e-35 1.0000000180025095e-35 2.3502401828962087 2.602003343538398 1.2424533248940004 1.7005986908310777 1.4978661367769956 1.8688348091416842 1.4978661367769956 2.9174053685313028 3.3842466058243152 2.6735537653587347 5.5392989060884821 3.1567740231385479 5.3057863027301417 1.4978661367769956 1.0000000180025095e-35 2.6735537653587347 0.89587973461402759 6.4272968650711446 0.89587973461402759 1.0000000180025095e-35 5.040188859666439 1.0000000180025095e-35 2.249904835165133
decision_type=2 2 2 2 2 2 2 2 2 2 2 2 2 2 2 2 2 2 2 2 2 2 2 2 2 2 2 2 2 2
left_child=1 2 8 15 -5 11 29 10 9 19 -2 -4 27 -13 -11 16 -3 22 -9 -1 23 26 -18 24 -12 -26 -15 -10 -21 -6
right_child=7 3 5 4 6 -7 -8 18 12 14 20 13 -14 21 -16 -17 17 -19 -20 28 -22 -23 -24 -25 25 -27 -28 -29 -30 -31
leaf_value=0.1043824174185428 0.10486673260515206 0.10135739442621555 0.10344338269596259 0.10390049656223915 -0.046006976385803866 0.10431921152291511 0.10370173322408945 0.10488789006323829 0.11268407654416274 0.10484231442604851 0.11321304561848063 0.10350198458434608 0.10564412116388405 0.10734650672878593 -0.044245723187025091 -0.034460015764709785 0.10647464147248793 0.1032017426235959 -0.043929264983647298 0.1042756247379923 0.10846993924124215 0.10570002467867999 -0.047780151622127204 -0.044247595478546002 -0.035886822634350932 0.11828499444799592 -0.045603139955152271 -0.047156411311535404 -0.046769895003540646 0.10535163956119564
leaf_weight=15310.569279156625 980.10822232067585 44110.425316311419 830.54914774000645 4797.624905154109 12390.573943510652 2412.4196062833071 1866.0243749022484 1949.9971641227603 210.80926863849163 686.67081751674414 1122.9491037353873 546.7989222034812 1006.9399579688907 226.78865855932236 2252.0439745783806 611.73412770032883 279.20250581204891 3049.8811840116978 577.98543475568295 300.15534563362598 318.35315143316984 255.03605609387159 1693.632824420929 53639.337497554719 23305.483792103827 445.01587107405066 92411.862097259611 2968.0068856403232 620.43080723285675 188.52748879790306
leaf_count=195725 12558 553983 10573 61209 3146 30829 23783 24982 2798 8798 14966 6963 12947 2937 1365 859 3602 38785 351 3835 4148 3280 525 24141 29300 6078 17073 704 344 2420
internal_value=-0.000236573 0.0140157 -0.018376 0.0703777 0.00736872 -0.0389808 -0.0246921 -0.0329557 0.0669199 0.0820446 -0.0362441 -0.0426479 -0.00234806 -0.0439464 -0.00940927 0.0947514 0.0963601 0.0524734 0.0708631 0.0986027 -0.0379985 -0.0448143 -0.0259495 -0.0385924 -0.0263972 -0.0329981 -0.0452287 -0.0365563 0.00247821 -0.0437385
internal_weight=271366 189027 120039 68987.6 19242.8 96683.5 14445.1 82339.2 23355.6 19169.9 79811.2 94271 4185.76 93440.5 2938.71 49744.9 49133.1 5022.72 2527.98 16231.2 78831.1 92893.7 1972.84 78512.8 24873.4 23750.5 92638.7 3178.82 920.586 12579.1
internal_count=1103007 986483 298171 688312 90558 71655 29349 116524 226516 210067 91191 40826 16449 30253 10163 597754 596895 42912 25333 199904 78633 23290 4127 74485 50344 35378 20010 3502 4179 5566
is_linear=0
shrinkage=0.05


Tree=13
num_leaves=31
num_cat=0
split_feature=30 15 35 6 22 21 5 23 30 14 5 27 34 18 18 17 14 15 20 29 6 5 35 16 30 21 24 16 14 24
split_gain=255688 124404 67578.7 26493.3 11248.8 10338.7 7085.81 2898.83 10684.1 5512.66 2483.52 1135.72 6.56202 0.493967 0.0972743 0.0880028 0.144421 0.0798474 0.0530105 0.0228882 0.0321464 0.0218824 0.0747693 0.125158 0.034976 0.0213474 0.0211668 0.0657895 0.0340333 0.0299331
threshold=2.9174053685313028 0.89587973461402759 2.8617925509761908 2.4414009612931857 1.7005986908310777 3.6762205501217919 1.0000000180025095e-35 2.0126758453675748 2.1383330595080281 1.0000000180025095e-35 1.0000000180025095e-35 1.0000000180025095e-35 2.8617925509761908 3.4498615536424366 3.7012257604091228 2.0126758453675748 1.0000000180025095e-35 3.2156655409667398 2.602003343538398 2.0126758453675748 2.0126758453675748 1.0000000180025095e-35 3.3842466058243152 1.2424533248940004 2.740319461670996 3.8176519431297078 2.602003343538398 1.0000000180025095e-35 1.4978661367769956 3.3842466058243152
decision_type=2 2 2 2 2 2 2 2 2 2 2 2 2 2 2 2 2 2 2 2 2 2 2 2 2 2 2 2 2 2
left_child=2 5 3 14 7 10 -6 17 -9 -10 13 -5 -12 -2 -1 16 -14 21 -15 -3 -21 22 23 24 -4 -26 -23 29 -29 -28
right_child=1 19 4 11 6 -7 -8 8 9 -11 12 -13 15 18 -16 -17 -18 -19 -20 20 -22 26 -24 -25 25 -27 27 28 -30 -31
leaf_value=-0.047631319011848722 -0.047877938261243244 -0.047592136019953692 -0.047693402120892264 -0.047724100763210292 0.079733945145768037 -0.047707856615223518 -0.047607842350277402 -0.047611485044230108 0.080459057725700223 -0.047622858416003527 0.10187396056879272 0.1030016339644243 0.10319109707703185 -0.05178413150276532 -0.048348723002942164 0.10324716951982622 0.10297023280802926 -0.049386940749710707 -0.054808812579475244 -0.048281827457772049 -0.047570597055823116 -0.047589914899978158 -0.047618593607089921 -0.048529448150127344 -0.048665232603659542 -0.047775921717548374 -0.047486271228495837 -0.047625241042010387 -0.048787715037842065 -0.048282404616522626
leaf_weight=3407.0994864851236 210.05099925771356 17303.948978837579 3465.7473501376808 126.30395159497857 2984.883932005614 1167.0666902326047 1723.0052412636578 13583.482380725443 2964.6725290939212 1172.2715437598526 11734.414680629969 11911.253983676434 23266.505340576172 35.241208605468273 548.59023213386536 23128.914115905762 10854.467214748263 63.39492991194129 24.595863968133926 293.3557990975678 346.56182589754462 86953.344256136566 28507.083051368594 573.9161365032196 155.56964206695557 119.17308911308646 149.34167691320181 23878.317393988371 63.128308858722448 563.73819226026535
leaf_count=50327 3647 45557 32707 2209 518 20424 1550 8617 509 2058 1777 345 352 519 165 350 341 1021 335 4986 6109 713203 150700 340 2594 2077 2646 45633 1048 343
internal_value=8.55116e-05 0.0699249 -0.0336536 0.0645299 -0.0430609 0.0998719 0.0331291 -0.0452721 -0.0261857 0.0441649 0.102359 0.10142 0.102951 -0.0490196 -0.0477308 0.103172 0.103121 -0.0476128 -0.0530274 -0.047603 -0.0478966 -0.0476121 -0.047648 -0.0478419 -0.0477365 -0.0482795 -0.0476015 -0.0476424 -0.0476283 -0.0481157
internal_weight=271279 88365.1 182914 15993.2 166921 70421.3 4707.89 162213 17720.4 4136.94 69254.2 12037.6 68984.3 269.888 3955.69 57249.9 34121 144493 59.8371 17943.9 639.918 144429 32821.5 4314.41 3740.49 274.743 111608 24654.5 23941.4 713.08
internal_count=1103007 84397 1018610 53046 965564 27745 2068 963496 11184 2567 7321 2554 2820 4501 50492 1043 693 952312 854 56652 11095 951291 188418 37718 37378 4671 762873 49670 46681 2989
is_linear=0
shrinkage=0.05


Tree=14
num_leaves=31
num_cat=0
split_feature=21 27 5 34 30 27 21 27 36 20 6 1 1 0 0 0 1 0 1 1 0 1 0 1 1 16 36 16 34 5
split_gain=171802 107893 74946.8 64444 50953 27586.5 5079.34 4319.45 4005.29 7896.19 1650.33 1395.22 1343.85 972.833 653.667 5199 183.649 258.998 56.4499 57.6946 42.4874 151.81 20.9342 40.7656 10.9105 3.5893 2.96779 2.14586 1.37243 0.656587
threshold=3.0677824455408698 2.3502401828962087 1.2424533248940004 2.4414009612931857 2.740319461670996 0.89587973461402759 2.8617925509761908 1.2424533248940004 5.0657496176235997 2.3502401828962087 2.0126758453675748 -0.70710678118654757 0.60355339059327384 -0.9159756150367534 -0.60355339059327362 0.60355339059327384 -0.5 0.60355339059327384 0.9159756150367534 -0.9159756150367534 -0.9159756150367534 1.0000000180025095e-35 -0.9159756150367534 -0.12940952255126037 -0.78656609248549325 1.7005986908310777 4.945201156493737 1.7005986908310777 1.8688348091416842 1.4978661367769956
decision_type=2 2 2 2 2 2 2 2 2 2 2 2 2 2 2 2 2 2 2 2 2 2 2 2 2 2 2 2 2 2
left_child=4 2 8 5 -1 -4 -6 18 9 -2 -8 -11 13 -13 -3 -16 17 -15 19 -7 21 27 23 -12 25 -22 -24 -21 -25 -20
right_child=1 14 3 -5 6 7 10 -9 -10 11 22 12 -14 16 15 -17 -18 -19 29 20 24 -23 26 28 -26 -27 -28 -29 -30 -31
leaf_value=-0.047637533068204785 -0.047682146326322838 0.10330847049868069 -0.047648537429060327 -0.04757103637050164 -0.047718954012930137 0.093266529679243676 -0.048262667526123536 -0.048143267576808618 -0.047610015242450482 -0.048593941868605738 0.10416347445782735 -0.049128942310710973 -0.048596646811487565 -0.0527998367555816 -0.049820237621078629 0.10329831739954809 0.10424440203281178 0.081106386858378357 0.091760929762081708 0.07690205490348824 0.097140251506780767 0.10395055144915888 0.10230719892946372 0.09616903073270483 0.10354677938961361 0.10156394987024107 0.10322302237440278 0.081799253825787538 0.093796542204869826 0.093482479189679446
leaf_weight=6685.0482602678239 4556.8385209664702 13579.77807123214 3846.0144953504205 17228.701516676694 574.18789177760482 2119.5903632864356 182.17526346817613 501.34951737895608 149494.27587364987 247.35131625458598 2537.9474083185196 119.78037184476852 194.85245297849178 43.135092534124851 647.15930474549532 3866.7155679762363 1601.586232483387 221.74550124257803 1021.1075903251767 456.1664265319705 883.10158366709948 2068.5670796968043 13186.623312365264 1875.4593637734652 13374.697850592434 953.78536128997803 26874.341468811035 438.92428255081177 903.09178233891726 1210.3483877182007
leaf_count=98761 60292 399 67550 169771 10052 114 3120 8646 678597 821 117 408 661 128 516 117 264 136 80 64 53 39 1437 61 274 13 285 20 176 35
internal_value=0.00044095 -0.0191068 -0.0296552 0.0279152 0.0813708 0.0763094 0.100065 0.0970125 -0.0458808 -0.00887431 0.101927 0.0639462 0.076709 0.0890016 0.0978293 0.0813455 0.0978661 0.0593001 0.100243 0.101073 0.101983 0.0965066 0.10253 0.0995823 0.103051 0.0994372 0.102922 0.0793035 0.0953979 0.0926947
internal_weight=271494 218676 200582 44102.4 52818.9 26873.7 46133.8 23027.6 156480 6985.29 45559.6 2428.45 2181.1 1986.25 18093.7 4513.87 1866.47 264.881 22526.3 20294.8 18175.2 2963.66 45377.5 5316.5 15211.6 1836.89 40061 895.091 2778.55 2231.46
internal_count=1103007 988998 987966 246659 114009 76888 15248 9338 741307 62710 5196 2418 1597 936 1032 633 528 264 692 577 463 123 2076 354 340 66 1722 84 237 115
is_linear=0
shrinkage=0.05


Tree=15
num_leaves=31
num_cat=0
split_feature=36 10 6 38 21 20 24 21 24 18 34 18 6 34 28 17 4 18 1 36 1 36 0 27 14 16 36 18 18 35
split_gain=318018 42992 14854.2 13007.2 7795.91 13994.4 8663.44 7409.16 7028.57 5133.04 4478.27 5701.37 3594.75 3182.51 2599.61 3054.01 1853.84 1713.14 1663.16 2236.9 1647.55 1608.34 1370.01 1345.76 1273.09 1191.26 1146.49 1051 7607.58 5917.05
threshold=6.3809692771529329 1.0000000180025095e-35 2.602003343538398 1.0000000180025095e-35 5.7252164247697896 3.9607678160667752 2.4414009612931857 4.2835627800822236 2.740319461670996 4.6001450180613412 3.1567740231385479 1.7005986908310777 2.602003343538398 2.602003343538398 0.89587973461402759 3.3497501700808394 0.89587973461402759 4.6681339642869872 -0.70710678118654757 6.72623268350885 0.78656609248549303 6.72623268350885 -0.9159756150367534 0.89587973461402759 1.4978661367769956 2.602003343538398 6.72623268350885 3.6505739029280164 3.7256208424938388 3.3842466058243152
decision_type=2 2 2 2 2 2 2 2 2 2 2 2 2 2 2 2 2 2 2 2 2 2 2 2 2 2 2 2 2 2
left_child=1 2 8 13 5 6 -2 10 27 -10 11 -4 24 -3 15 -7 17 -8 19 -17 22 -22 26 -11 -6 -19 -20 -1 29 -29
right_child=4 3 7 -5 12 14 16 -9 9 23 -12 -13 -14 -15 -16 18 -18 25 20 -21 21 -23 -24 -25 -26 -27 -28 28 -30 -31
leaf_value=-0.046571590224970774 -0.048621323947279839 0.10028712898299152 0.095193088789157429 -0.047766995710903974 0.10152351275265437 0.082977101530936667 -0.049493488443010457 -0.04760956203598006 -0.047757075725306221 -0.048646712125617705 0.10267408248217889 -0.017698284796700946 -0.048251596014975716 -0.047964809829605791 0.090922269814134218 -0.050563692502778403 -0.053553218368290134 0.096991311549396136 -0.05056176920325154 0.12525308795567286 -0.050596884451111671 0.12954343732107362 -0.045087052355305586 0.10565800910480339 -0.051053147859158855 -0.05634385920463824 0.12720479985725447 0.11356221759064503 -0.042552908229452784 -0.047770250185947362
leaf_weight=127509.88888568431 1131.3714053332806 7865.2679121382535 1656.9349349439144 2032.1206592619419 44865.736265342683 893.0316248908639 204.01665422692895 3023.3404668681324 1102.269678439945 155.84436544403434 2329.3476473540068 3441.05135275051 406.75975097715855 379.46589061245322 828.65121584385633 306.8491985052824 212.90297761559486 21347.286154273897 153.16715817153454 440.79155445098877 206.22476985305548 310.41601967811584 4083.2558218464255 1514.2814902924001 137.13517160713673 127.42330432683229 222.39511966705322 1430.203252159059 42148.853894434869 943.09824702888727
leaf_count=624271 18991 4501 1765 35493 20399 2103 3282 53177 19238 2608 699 25650 6935 6559 1362 4837 3093 18584 2413 110 3246 79 4120 881 2088 1715 56 2096 216203 16453
internal_value=-0.000290023 -0.0340056 -0.0395277 0.0655372 0.0865933 0.0670273 0.0862969 0.018377 -0.0429895 0.0359882 0.0452372 0.0189934 0.0997211 0.0934638 0.00743615 -0.00302025 0.0932696 0.0947115 -0.0164393 0.0530938 -0.0268877 0.0576378 -0.0366816 0.0912594 0.101059 0.0960815 0.0547055 -0.0442623 -0.0376485 0.0494522
internal_weight=271409 195532 185255 10276.9 75877.4 30467.8 23023 10450.7 174804 2772.4 7427.33 5097.99 45409.6 8244.73 7444.78 6616.13 21891.6 21678.7 5723.1 747.641 4975.46 516.641 4458.82 1670.13 45002.9 21474.7 375.562 172032 44522.2 2373.3
internal_count=1103007 1009594 963041 46553 93413 63991 45665 81291 881750 22727 28114 27415 29422 11060 18326 16964 26674 23581 14861 4947 9914 3325 6589 3489 22487 20299 2469 859023 234752 18549
is_linear=0
shrinkage=0.05


Tree=16
num_leaves=31
num_cat=0
split_feature=30 36 34 21 27 10 34 49 24 21 6 6 8 15 20 6 20 24 4 6 30 44 20 20 20 35 6 24 36 15
split_gain=45505.2 92089.9 61052.5 32340.9 31952.7 18997 15651.5 18597.6 15056.8 12906 12549.9 11265.6 10218.2 9243.93 5602.36 5598.15 4776.58 4387.65 3882.59 3488.77 5747.24 3286.21 2953.68 2637.37 2481.19 2414.84 2230.65 1286.7 1272.14 1239.67
threshold=2.8617925509761908 6.3080967825872669 1.8688348091416842 3.6762205501217919 1.0000000180025095e-35 1.0000000180025095e-35 2.4414009612931857 1.0000000180025095e-35 2.524928003624769 5.8493206274161009 2.0126758453675748 2.1383330595080281 0.89587973461402759 0.89587973461402759 1.7005986908310777 1.4978661367769956 2.4414009612931857 3.3842466058243152 1.0000000180025095e-35 2.602003343538398 2.6735537653587347 1.0000000180025095e-35 3.3497501700808394 2.0126758453675748 3.3140206880897671 2.8029010331479989 2.602003343538398 2.3502401828962087 5.8126357624008849 3.0900083268262866
decision_type=2 2 2 2 2 2 2 2 2 2 2 2 2 2 2 2 2 2 2 2 2 2 2 2 2 2 2 2 2 2
left_child=1 2 4 15 21 -5 7 12 9 22 -9 -6 -4 16 25 -2 23 19 -17 -8 -21 -1 -3 -12 -22 -13 27 -11 -7 -10
right_child=3 8 6 5 11 28 17 10 29 26 13 14 -14 -15 -16 18 -18 -19 -20 20 24 -23 -24 -25 -26 -27 -28 -29 -30 -31
leaf_value=0.095238137203755541 0.094221250949832303 -0.0071813990802929092 0.095190215376197887 0.09580474964700407 0.096916653866587876 0.11275831755627806 0.094508632204252263 0.095371211504647724 -0.039944169184505496 -0.04475180625888879 0.099359940097495922 0.10311996027137282 -0.033227881615481424 0.095097908849710755 0.098070637215225714 -0.045792606025530688 0.094515146410100878 -0.048226598639136711 0.095599110483758853 0.094538001240717789 0.094294327010504372 -0.023216602940239715 0.10077554710194994 -0.042424808675538411 -0.04213100858831674 -0.046503684357836882 0.098809614008439142 0.14760076605042938 -0.046446422388380711 0.14523938346057241
leaf_weight=6414.3969520553946 731.64833212643862 747.38899672776461 13894.139716506004 7284.07452570647 1554.7933045327663 129.81655769050121 37618.798229239881 3149.5788465440273 61425.703605163842 4284.7999361865222 337.96966112405062 272.40587982535362 1743.4089444801211 1669.6056103631854 701.97995594888926 69539.1430176422 720.29273097962141 588.11771154403687 488.94152288138866 2975.4537166804075 418.84902165830135 644.31711369752884 4160.7678692862391 11099.626824446023 1631.3625123277307 26819.31641843915 305.91369336843491 88.740861486643553 3753.5934945493937 90.506951399147511
leaf_count=79092 8984 2765 171286 90031 19310 1733 462534 38854 50496 2214 4243 3478 2580 20579 8761 7942 8854 178 6037 36581 5144 1528 52609 5683 1209 1922 3827 1383 1385 1391
internal_value=9.2082e-05 0.0139344 0.0421358 -0.0308878 -0.0110868 0.0481886 0.067683 0.0415326 -0.0305883 0.027693 0.00529625 -0.0340589 0.0808731 -0.0152207 -0.0413857 -0.0433679 -0.0303704 0.0874108 -0.0448054 0.0892814 0.0501541 0.0844256 0.0843364 -0.0382352 -0.0142599 -0.0449992 -0.0317189 -0.0408489 -0.0411244 -0.0396717
internal_weight=265285 183358 112254 81927.2 36407.2 11167.5 75847.2 32614.6 71103.8 9587.61 16977.1 29348.5 15637.5 13827.5 27793.7 70759.7 12157.9 43232.6 70028.1 42644.5 5025.67 7058.71 4908.16 11437.6 2050.21 27091.7 4679.45 4373.54 3883.41 61516.2
internal_count=1102613 986501 871816 116112 114091 93149 757725 252079 114685 62798 78213 33471 173866 39359 14161 22963 18780 505646 13979 505468 42934 80620 55374 9926 6353 5400 7424 3597 3118 51887
is_linear=0
shrinkage=0.05


Tree=17
num_leaves=31
num_cat=0
split_feature=30 15 35 6 9 41 21 23 5 0 2 27 0 0 0 20 6 9 19 15 19 0 6 35 27 30 13 20 0 20
split_gain=224569 109560 57461.9 22321.7 14857.1 11991.1 8664.61 7646.57 2129.99 1372.52 969.897 951.907 475.182 3910.73 24.8757 5.61135 3.17919 0.528336 0.216503 0.151794 0.115693 0.105058 0.0705689 0.0700428 0.0899543 0.0665311 0.0544669 0.0524304 0.0462542 0.0460163
threshold=2.9174053685313028 0.89587973461402759 2.8617925509761908 2.4414009612931857 1.4978661367769956 1.0000000180025095e-35 3.6762205501217919 2.0126758453675748 1.0000000180025095e-35 -0.9159756150367534 0.87837969732492682 1.0000000180025095e-35 0.60355339059327384 -0.70710678118654735 -0.78656609248549292 2.524928003624769 2.3502401828962087 1.0000000180025095e-35 3.0201273556387074 3.2156655409667398 3.0201273556387074 0.78656609248549325 2.3502401828962087 3.2384861814448418 1.0000000180025095e-35 2.4414009612931857 1.0000000180025095e-35 2.740319461670996 -0.25881904510252113 2.602003343538398
decision_type=2 2 2 2 2 2 2 2 2 2 2 2 2 2 2 2 2 2 2 2 2 2 2 2 2 2 2 2 2 2
left_child=2 6 3 -1 19 7 8 -6 17 22 12 -5 13 14 16 -10 -11 29 21 23 -16 -14 -9 24 -4 -26 -19 -17 -15 -2
right_child=1 -3 4 11 5 -7 -8 9 15 10 -12 -13 18 28 20 27 -18 26 -20 -21 -22 -23 -24 -25 25 -27 -28 -29 -30 -31
leaf_value=-0.047042650264338036 -0.051641697886310393 -0.046904770948305419 -0.046982847868689892 -0.047002255857641589 -0.046928876851638851 -0.046898588462155305 -0.04702591674734688 -0.051223453192539792 0.092876380534511971 0.090476727865163267 -0.051176055380233745 0.09385963613945493 0.096516939716899078 -0.050372298453217126 0.097446217747167066 0.094069013449769923 0.085607715965323683 -0.047316336987681194 0.097085197366753681 -0.049339461351470534 0.098375930085276522 0.095520914316375924 -0.04942165672914426 -0.04691507410689727 -0.04695879304672082 -0.047669296833083491 -0.050842516442087073 0.093950848742619886 -0.049478679493933746 -0.054667337074583579
leaf_weight=3793.6060912720859 24.335241392254829 17911.256433028728 5080.5698952972889 121.18195766955614 1688.3938292935491 5849.2488581128418 1116.9552446976304 112.40935564041138 12432.206663273275 783.98084163665771 143.03930247947574 11659.041899465024 747.71331400424242 292.96581652387977 609.90587081760168 47123.797210693359 585.73263655602932 201.53175584226847 1422.3766708374023 64.998095639050007 741.35637664794922 409.87204196304083 105.20045134425163 138250.30715490505 499.65116310864687 967.42608149722219 11.580543488264082 11722.707622922957 286.33449138700962 25.985274828970432
leaf_count=50706 360 56382 74553 2212 21228 29506 20358 30 1747 22 108 347 46 238 49 688 94 3620 21 1049 11 41 146 821409 9153 7387 176 340 231 355
internal_value=-6.82285e-06 0.0638559 -0.0332075 0.0584414 -0.0422047 0.00740949 0.0911597 0.0474713 0.0933171 0.0730101 0.077467 0.0924106 0.0805963 0.0680292 0.093143 0.0938416 0.0883946 -0.048596 0.096672 -0.0469237 0.0979563 0.0961643 -0.0503524 -0.0469226 -0.0470824 -0.0474273 -0.0475079 0.0940455 -0.0499306 -0.0532041
internal_weight=264786 90570.4 174215 15573.8 158641 13778.5 72659.1 7929.28 71542.1 6240.89 6023.28 11780.2 5880.24 3300.28 2720.98 71278.7 1369.71 263.433 2579.96 144863 1351.26 1157.59 217.61 144798 6547.65 1467.08 213.112 58846.5 579.3 50.3205
internal_count=1102613 84026 1018587 53265 965322 51771 27644 22265 7286 1037 861 2559 753 645 176 2775 116 4511 108 913551 60 87 176 912502 91093 16540 3796 1028 469 715
is_linear=0
shrinkage=0.05


Tree=18
num_leaves=31
num_cat=0
split_feature=21 27 5 34 30 27 6 21 20 21 27 1 0 0 1 0 1 0 1 0 1 0 1 17 20 5 17 5 5 6
split_gain=159171 89854.8 59888.4 53084.9 43495.3 22883.8 5374.06 5769.6 4295.93 4249.24 3611.35 2906.81 466.34 1720.26 295.77 1981.16 62.1027 101.76 72.847 35.2561 90.6764 15.7769 1277.08 10.4357 1329.77 2.85641 2.27357 1.43139 0.786233 0.423059
threshold=3.0677824455408698 2.3502401828962087 1.2424533248940004 2.4414009612931857 2.740319461670996 0.89587973461402759 2.602003343538398 3.7012257604091228 2.3502401828962087 2.8617925509761908 1.2424533248940004 -0.78656609248549325 0.60355339059327384 -0.78656609248549292 0.60355339059327384 -0.60355339059327362 -0.78656609248549325 0.37940952255126054 0.9159756150367534 -0.9159756150367534 1.0000000180025095e-35 -0.9159756150367534 1.0000000180025095e-35 1.0000000180025095e-35 0.89587973461402759 1.4978661367769956 1.0000000180025095e-35 1.4978661367769956 1.4978661367769956 2.0126758453675748
decision_type=2 2 2 2 2 2 2 2 2 2 2 2 2 2 2 2 2 2 2 2 2 2 2 2 2 2 2 2 2 2
left_child=4 2 6 5 -1 -4 -2 8 -8 -6 16 -3 13 -10 -13 -16 17 25 19 20 28 22 26 -23 -25 -7 -11 -20 -18 -26
right_child=1 11 3 -5 9 10 7 -9 12 21 -12 14 -14 -15 15 -17 18 -19 27 -21 -22 23 -24 24 29 -27 -28 -29 -30 -31
leaf_value=-0.046930717830358626 -0.046918953856260465 -0.049761543460749215 -0.046938947453732845 -0.046869096250996882 -0.047021205734468448 0.076183680984729024 -0.046922087940341195 -0.046928784965206249 0.080362835243652578 0.094810734696464893 -0.047404824125209043 0.094201123932338454 0.093433770164694577 -0.048581966822117989 0.094169197588459749 -0.04975862675354345 0.073767060861027953 0.094555217420652454 0.08125244348610379 0.094410512409657879 0.094714390627323022 0.093902203002592402 -0.056426902841305596 0.093835072057832258 -0.047656236973073633 0.079803269431669543 0.092770894645407428 0.084068484604675822 0.076715476620956652 -0.053163031319190847
leaf_weight=6431.1311330981553 142356.49750959873 370.36568873748183 3682.1268473528326 16512.739654108882 548.19892835244536 1003.9662908092141 1057.9881759881973 3942.1279742643237 1201.1272814273834 3998.2845556735992 482.38521294295788 15053.023502752185 1286.5358934402466 329.64632558822632 1662.0501454994082 279.26867187023163 456.58847074955702 1658.987807456404 861.17134466767311 12887.795170731843 1755.5256094373763 27200.85948599875 144.2259081825614 14687.272140730172 113.65191574394703 1192.4370985031128 2074.909675039351 948.01110458374023 447.92183113098145 50.319249711930752
leaf_count=98980 687012 294 67493 170102 10011 114 848 52411 50 121 8669 464 20 98 56 231 56 36 89 262 37 848 280 729 2028 41 465 28 19 721
internal_value=-0.00019341 -0.0201087 -0.0299564 0.0229079 0.0752984 0.0683117 -0.0447025 -0.0043397 0.0389838 0.0914006 0.0878725 0.0888123 0.0712442 0.0525951 0.0918323 0.0734644 0.0909488 0.0852085 0.0922239 0.0933288 0.088088 0.0929726 0.0906217 0.0933202 0.0922542 0.0781488 0.0941138 0.082728 0.0752271 -0.0493462
internal_weight=264677 209428 192064 41889.7 55248.9 25376.9 150174 7817.43 3875.3 48817.7 21694.8 17364.7 2817.31 1530.77 16994.3 1941.32 21212.4 3855.39 17357 15547.8 2660.04 48269.5 6217.42 42052.1 14851.2 2196.4 6073.19 1809.18 904.51 163.971
internal_count=1102613 988430 987385 246946 114183 76844 740439 53427 1016 15203 9351 1045 168 148 751 287 682 191 491 374 112 5192 866 4326 3478 155 586 117 75 2749
is_linear=0
shrinkage=0.05


Tree=19
num_leaves=31
num_cat=0
split_feature=36 10 6 30 5 24 21 34 36 27 35 24 30 6 34 6 49 27 30 34 36 21 14 24 1 1 6 0 35 36
split_gain=280289 38580.3 12418.6 11879.2 11065.2 6633.78 5893.15 4338.32 3751.45 3582.47 3570.13 2934.12 2955.88 8116.27 2668.94 2601.23 1690.32 1501.2 1341.87 4922.24 4616.96 3146.56 1287 1195.7 1181.67 1020.92 838.157 794.311 698.624 666.036
threshold=6.3809692771529329 1.0000000180025095e-35 2.602003343538398 2.249904835165133 1.0000000180025095e-35 2.740319461670996 4.2835627800822236 3.1567740231385479 6.2869283273353256 1.0000000180025095e-35 3.3497501700808394 1.7005986908310777 2.1383330595080281 2.3502401828962087 2.602003343538398 2.249904835165133 1.0000000180025095e-35 0.89587973461402759 2.524928003624769 1.4978661367769956 5.2337752898422689 3.9219243190762363 1.4978661367769956 2.4414009612931857 -0.70710678118654757 0.78656609248549303 1.4978661367769956 -0.9159756150367534 4.5900436644025815 6.72623268350885
decision_type=2 2 2 2 2 2 2 2 2 2 2 2 2 2 2 2 2 2 2 2 2 2 2 2 2 2 2 2 2 2
left_child=1 2 5 11 14 18 7 10 -7 15 16 -2 22 23 26 -5 -4 -10 19 20 -1 -22 -13 -14 29 27 -3 -26 -19 -15
right_child=3 4 6 9 -6 8 -8 -9 17 -11 -12 12 13 24 -16 -17 -18 28 -20 -21 21 -23 -24 -25 25 -27 -28 -29 -30 -31
leaf_value=-0.046963411267747716 -0.047568193363528508 -0.051567462488386367 -0.047985900030085585 0.093055080257437445 -0.047060672923075107 -0.047018931696409513 -0.046908268869462054 0.09349565528218988 -0.047773452491153813 -0.021604654672029686 -0.018709560820508869 0.089857840850501872 -0.048988384634532513 -0.0530034010494577 -0.047255863606376514 -0.048181367964972459 0.08591569073535818 0.099750011454224324 -0.046734568557102708 -0.040865624213647318 0.10633795715947963 -0.04716032665446783 -0.050286121348022565 0.090293792293025588 0.071777483668048064 0.077592238333280994 0.093171731328674068 -0.044637206411223124 -0.049682637082330283 0.11449347938992216
leaf_weight=1412.5479022264481 417.1448914706707 101.29520728811622 275.38829662650824 1527.4316543415189 1940.8065110109746 937.71747298911214 2899.7181119993329 2341.456854313612 217.02817817404866 3538.9698243737221 3422.8806404434144 62330.424700152129 157.40531411021948 77.590991374105215 362.94822849705815 414.46710382029414 1634.8912946693599 1548.7537441253662 105321.3782299608 54455.325531482697 1495.1869039684534 429.84425453469157 164.25322359800339 7313.0194508433342 158.03556462749839 216.97531456127763 7954.1240112744272 2011.9473654963076 82.37556017190218 252.46384620666504
leaf_count=25834 7425 1565 4759 660 35349 17088 53202 681 3804 21068 20729 43375 2631 1145 6535 7132 1893 346 325340 498883 1038 7770 2591 5005 617 798 2910 1014 1366 60
internal_value=0.000107642 -0.033215 -0.0387199 0.0793363 0.0605636 -0.0420685 0.0138167 0.0367606 0.0344369 0.00833946 0.0118518 0.0846595 0.0854184 0.0604444 0.0853758 0.0629104 0.0666123 0.0757659 -0.0433752 -0.0372531 0.021688 0.072063 0.0894895 0.0873591 -0.0135575 -0.0258189 0.0913517 -0.036159 0.0922033 0.0751174
internal_weight=265414 186834 176474 78580.1 10359.2 165900 10574.3 7674.62 2785.87 5480.87 5333.16 73099.3 72682.1 10187.4 8418.37 1941.9 1910.28 1848.16 163114 57792.9 3337.58 1925.03 62494.7 7470.42 2717.01 2386.96 8055.42 2169.98 1631.13 330.055
internal_count=1102613 1009092 962733 93521 46359 881469 81264 28062 22604 28860 27381 64661 57236 11270 11010 7792 6652 5516 858865 533525 34642 8808 45966 7636 3634 2429 4475 1631 1712 1205
is_linear=0
shrinkage=0.05


Tree=20
num_leaves=31
num_cat=0
split_feature=18 21 30 18 4 10 6 30 30 6 24 8 21 18 5 21 24 24 27 36 19 21 18 18 36 6 26 30 18 14
split_gain=42279.8 140564 45551.3 25310 16409.7 12269.3 10871.4 9276.01 8500.74 7483.15 6374.98 5292.98 5097.94 4316.24 3928.67 3151.57 3013.39 2897.28 2441.53 8450.05 2330.94 6201.2 2106.29 1927.19 1471.33 1461.7 1389.04 1280.81 3371.06 1256.56
threshold=4.6586997221347959 3.795426061844291 2.602003343538398 3.7012257604091228 1.0000000180025095e-35 1.0000000180025095e-35 2.602003343538398 2.3502401828962087 2.9700856263602158 1.4978661367769956 1.7005986908310777 0.89587973461402759 2.8617925509761908 2.9174053685313028 1.2424533248940004 3.7256208424938388 3.3842466058243152 3.1567740231385479 0.89587973461402759 6.4272968650711446 2.6735537653587347 4.4127799275304271 1.4978661367769956 4.8402344967050359 5.3156629864430025 2.602003343538398 1.0000000180025095e-35 2.1383330595080281 5.0271592211193568 1.4978661367769956
decision_type=2 2 2 2 2 2 2 2 2 2 2 2 2 2 2 2 2 2 2 2 2 2 2 2 2 2 2 2 2 2
left_child=1 2 3 6 9 16 11 10 -7 -4 -2 -1 -11 -13 -8 22 20 -9 19 -12 -3 25 -14 -21 26 -22 -24 29 -29 -25
right_child=7 5 4 -5 -6 8 14 17 -10 12 18 13 15 -15 -16 -17 -18 -19 -20 23 21 -23 24 27 -26 -27 -28 28 -30 -31
leaf_value=0.0873188005791799 0.088065153354443759 0.083909799398569657 0.086774777296740033 -0.043614514650883507 0.087702536893537741 0.087178533535173824 -0.040740884040390196 0.08864776443637655 -0.042261433126354636 0.089650624563295755 0.09692117162756049 0.088032286050124031 0.087497641232860413 -0.042600166598669394 0.090292857120202852 0.095459038667511167 -0.032654382336706061 -0.042523960845532241 -0.042583490745540922 0.10275245831644307 0.094274339919377698 0.08661784144810708 -0.044953045879098465 -0.037735341299085338 0.092034518415453195 -0.046434951916384297 0.091519711705167817 -0.027276370628074899 0.10887789899750014 0.13284716241813271
leaf_weight=16118.955472648144 1046.6355544701219 52569.741929262877 1141.6633862927556 7777.725802950561 2573.6078217700124 1933.0875987112522 3075.2371193692088 2059.2486072480679 3688.9336446747184 728.2660584077239 1381.7027521170676 1067.7729139402509 304.06893534213305 1550.5702608525753 702.74963341653347 407.84836126863956 591.98849558085203 529.13953134417534 49184.462546374649 268.23367176949978 210.42148516327143 3564.9579531699419 84493.300556115806 19168.628783944994 197.33784940093756 1502.132800579071 186.86191373318434 2394.5955599173903 561.14988460764289 108.56948178261518
leaf_count=193606 12609 616157 13688 2258 30954 23207 2072 24847 2468 8825 17282 12862 3656 1026 8531 5046 868 341 24654 3449 2584 42719 11034 19910 2411 506 2282 4691 7401 1578
internal_value=-1.37147e-05 0.0129635 -0.0188902 0.0341457 -0.036735 0.0727941 0.0610073 -0.03121 0.00224548 -0.0403967 -0.0344594 0.0766083 -0.0420787 0.0106724 -0.0163671 -0.0431996 0.0795811 0.0618326 -0.0362145 -0.0230983 0.0807297 0.0490524 -0.0438635 -0.0304681 -0.0443341 -0.029146 -0.0446519 -0.0320754 -0.00142741 -0.0367746
internal_weight=261090 184387 120326 30293 90033 64061.3 22515.3 76702.4 5622.02 87459.3 74114 18737.3 86317.7 2618.34 3777.99 85589.4 58439.2 2588.39 73067.3 23882.9 57847.3 5277.51 85181.6 22501.2 84877.5 1712.55 84680.2 22232.9 2955.75 19277.2
internal_count=1103522 986760 298251 220355 77896 688509 218097 116762 25675 46942 91574 207494 33254 13888 10603 24429 662834 25188 78965 54311 661966 45809 19383 37029 15727 3090 13316 33580 12092 21488
is_linear=0
shrinkage=0.05


Tree=21
num_leaves=31
num_cat=0
split_feature=30 15 35 6 9 8 16 36 1 36 27 0 5 0 36 23 6 16 23 5 18 15 34 17 36 24 27 17 0 36
split_gain=202295 91867.1 53498.9 19523.7 15334.5 11405.9 7112.51 7107.2 2328.82 2019.58 820.326 261.664 4.00118 4.91117 3.73653 0.495025 0.436752 0.357572 0.248285 0.162783 0.149696 0.126131 0.100736 0.080238 0.0699914 0.0678471 0.065999 0.0455497 0.0418681 0.0410486
threshold=2.9174053685313028 0.89587973461402759 2.8617925509761908 2.4414009612931857 1.4978661367769956 1.0000000180025095e-35 0.89587973461402759 6.72623268350885 -0.70710678118654757 5.3589392201907193 1.0000000180025095e-35 0.60355339059327384 1.0000000180025095e-35 -0.78656609248549292 5.2443855436100657 0.89587973461402759 2.0126758453675748 1.4978661367769956 1.8688348091416842 1.2424533248940004 2.0126758453675748 3.2156655409667398 1.4978661367769956 2.249904835165133 5.0845003501084243 1.7005986908310777 1.0000000180025095e-35 0.89587973461402759 -0.78656609248549292 5.3399361658330653
decision_type=2 2 2 2 2 2 2 2 2 2 2 2 2 2 2 2 2 2 2 2 2 2 2 2 2 2 2 2 2 2
left_child=2 6 3 24 21 7 15 18 -9 14 -5 12 13 -10 -8 20 19 23 -6 -17 -2 22 26 25 -1 -16 -4 -28 -14 -22
right_child=1 -3 4 10 5 -7 9 8 11 -11 -12 -13 28 -15 17 16 -18 -19 -20 -21 29 -23 -24 -25 -26 -27 27 -29 -30 -31
leaf_value=-0.046250579094315458 -0.052170841750394215 -0.046252750200424048 -0.046327448667462127 -0.046341913041828504 -0.046255722937056647 -0.046253349434380919 0.085584285989791231 -0.048927244312287642 0.063727424156156717 -0.046338654025054112 0.086465524851785575 0.089281902922238046 0.070287799888917188 0.069058712950362255 0.086649093038928648 -0.057402347694266082 -0.046195519189820178 0.086330768171631572 -0.049763761470441342 -0.051313173046509758 -0.047117632870813365 -0.048522259587931403 -0.046269875335528843 0.086693272709368122 -0.046762426288623246 0.086482864362967829 -0.04717167635870903 -0.046417840079233129 0.06981303449105046 -0.046327940455112925
leaf_weight=2782.6084338538349 11.880165196955202 16549.186538614333 841.89453538134694 117.39735207334161 1599.7343385517597 5577.1989814341068 11522.110256887972 389.61917591094971 771.99936056137085 287.64281902462244 12148.022129610181 2575.2291488647461 887.13582754135132 980.77545571327209 12063.750503540039 13.474592462182043 45.502209216356277 12799.324793733656 52.080597668886185 59.184245862066746 217.79154090210795 62.449389204382896 138166.55791720748 23844.063018798828 878.82668744027615 12497.765073865652 645.31465636566281 290.639459785074 974.44353103637695 673.2694537229836
leaf_count=44239 173 56757 16070 2239 21067 29725 1701 114 48 5487 339 37 45 52 172 175 876 707 847 885 3989 1047 889329 340 6361 344 1939 5518 51 12849
internal_value=-8.65895e-05 0.0602485 -0.0322852 0.0549482 -0.0413178 0.00895249 0.0840546 0.046359 0.0696392 0.0858873 0.0851944 0.0771027 0.068425 0.0667106 0.0864103 -0.0469935 -0.0500368 0.0865658 -0.0463663 -0.0524424 -0.0465953 -0.0462757 -0.0462747 0.0866279 -0.0463734 0.0865645 -0.0466487 -0.0469376 0.0700393 -0.046521
internal_weight=260327 90584.9 169742 15926.9 153815 13808.2 74035.8 8231.02 6579.2 73014.7 12265.4 6189.58 3614.35 1752.77 72727 1021.1 118.161 61204.9 1651.81 72.6588 902.941 140007 139944 48405.6 3661.44 24561.5 1777.85 935.954 1861.58 891.061
internal_count=1103522 84455 1019067 53178 965889 51986 27698 22261 347 8751 2578 233 196 100 3264 18947 1936 1563 21914 1060 17011 913903 912856 856 50600 516 23527 7457 96 16838
is_linear=0
shrinkage=0.05


Tree=22
num_leaves=31
num_cat=0
split_feature=21 27 5 34 30 18 36 20 21 1 1 0 0 0 1 0 0 0 1 0 0 0 1 0 50 20 50 0 5 0
split_gain=138580 87595.8 55500.3 46896.3 37196.9 22180.3 5118.04 7791.22 3654.78 1162.46 1119.2 858.607 406.121 3984.39 72.3603 253.772 59.7119 2424.13 59.5212 95.4735 543.359 19.6936 1247.43 12.4944 9.64021 1147.69 2.14918 1.22741 1.04263 1.02859
threshold=3.0677824455408698 2.3502401828962087 1.2424533248940004 2.4414009612931857 2.740319461670996 4.1820210059610323 5.0657496176235997 2.3502401828962087 2.8617925509761908 -0.70710678118654757 0.60355339059327384 -0.9159756150367534 -0.60355339059327362 0.60355339059327384 -0.5 0.60355339059327384 0.25881904510252091 -0.25881904510252113 1.0000000180025095e-35 -0.9159756150367534 -0.98296291314453399 -0.9159756150367534 1.0000000180025095e-35 -0.70710678118654735 1.0000000180025095e-35 0.89587973461402759 1.0000000180025095e-35 -0.37940952255126065 1.4978661367769956 0.37940952255126054
decision_type=2 2 2 2 2 2 2 2 2 2 2 2 2 2 2 2 2 2 2 2 2 2 2 2 2 2 2 2 2 2
left_child=4 2 6 5 -1 -4 7 -2 -6 -9 11 -11 -3 -14 15 -13 17 18 19 20 -7 22 26 -21 -23 -26 -10 -20 -25 -18
right_child=1 12 3 -5 8 16 -8 9 21 10 -12 14 13 -15 -16 -17 29 -19 27 23 -22 24 -24 28 25 -27 -28 -29 -30 -31
leaf_value=-0.04626663665455856 -0.046393086524114724 0.086955038043503574 -0.04628203563516417 -0.046216625555932658 -0.046379267465948996 -0.058420641053929356 -0.046265330973211671 -0.048110026875023193 0.08721978050700839 -0.050005683511208092 -0.048103519413718182 -0.053937487304770694 -0.049653058055573573 0.086959796909274203 0.088870453175869682 0.079328675588059477 0.087973589355276882 -0.053081184061307921 0.086638696168636745 0.086544295312802957 0.077859288733532872 0.086497380960479375 -0.056265682488564173 0.079516715617837519 0.086401326993324451 -0.048835604120381897 0.085195025185251502 0.088063760322305035 0.081807849286476095 0.086646149475409426
leaf_weight=6138.7796524353325 4175.8986980654299 14209.622430689633 3893.6568463332951 15733.207550983876 530.29881079494953 80.938041653484106 137118.92095205188 227.97122820839286 4099.3760657459497 123.69043843820691 188.0406905002892 40.149144873023033 607.35225863754749 4402.82820764184 1997.7941324226558 324.01343161985278 1997.5994847752154 327.04821742326021 7421.9691791906953 1705.553400978446 759.28166608884931 28654.681064233184 156.82863304764032 951.44279769062996 14241.844819791615 158.62970842793584 1926.5126233659685 1897.2384570762515 1038.6054735183716 5415.8149446435273
leaf_count=98977 60268 399 74604 169910 10113 117 678718 823 119 416 691 134 508 121 276 128 120 501 504 117 125 855 294 240 728 2753 462 115 19 367
internal_value=9.28276e-05 -0.018967 -0.0294991 0.0216634 0.0698582 0.0635625 -0.0441252 -0.00266311 0.0841819 0.0602705 0.0695116 0.0784092 0.0826393 0.0703991 0.085134 0.064636 0.0833674 0.0814665 0.0846425 0.079945 0.0647315 0.0855881 0.0829493 0.0834039 0.085967 0.0849116 0.0865725 0.0869288 0.0807125 0.0870038
internal_weight=260546 204639 185419 41222.4 55907 25489.1 144196 7077.56 49768.2 2901.66 2673.69 2485.65 19219.8 5010.18 2361.96 364.163 21595.5 14182.1 13855 4535.82 840.22 49237.9 6182.72 3695.6 43055.2 14400.5 6025.89 9319.21 1990.05 7413.41
internal_count=1103522 989221 988193 246739 114301 76829 741454 62736 15324 2468 1645 954 1028 629 538 262 2225 1738 1237 618 242 5211 875 376 4336 3481 581 619 259 487
is_linear=0
shrinkage=0.05


Tree=23
num_leaves=31
num_cat=0
split_feature=36 10 6 30 38 18 21 19 18 27 30 6 34 6 18 30 34 36 21 1 14 21 21 21 1 19 0 36 18 1
split_gain=247993 35216.4 11928 9682.37 9571.9 5465.46 5446.19 3617.93 4666.04 3434.2 2790.22 7775.18 2299.19 2278.87 1854.49 1816.44 4709.94 4156.18 2767.41 1099.49 942.979 884.484 4408.36 868.983 867.424 728.44 678.003 669.163 643.34 1233.45
threshold=6.3809692771529329 1.0000000180025095e-35 2.602003343538398 2.249904835165133 1.0000000180025095e-35 5.2755571088971331 4.2835627800822236 2.6735537653587347 1.7005986908310777 1.0000000180025095e-35 2.1383330595080281 2.3502401828962087 2.602003343538398 2.249904835165133 4.6681339642869872 2.524928003624769 1.4978661367769956 5.2337752898422689 3.9219243190762363 -0.70710678118654757 1.4978661367769956 5.2122109552252045 5.2176457913436556 5.4827179284163234 0.78656609248549303 1.0000000180025095e-35 -0.9159756150367534 6.72623268350885 1.8688348091416842 -0.70710678118654757
decision_type=2 2 2 2 2 2 2 2 2 2 2 2 2 2 2 2 2 2 2 2 2 2 2 2 2 2 2 2 2 2
left_child=1 2 5 10 12 15 7 8 -4 13 14 23 25 -5 -2 16 17 -1 -19 27 -16 -18 -23 -12 26 -3 -21 -13 29 -10
right_child=3 4 6 9 -6 -7 -8 -9 28 -11 11 19 -14 -15 20 -17 21 18 -20 24 -22 22 -24 -25 -26 -27 -28 -29 -30 -31
leaf_value=-0.046298346390609285 -0.049915823426296996 0.085819949621547056 0.080279631269114124 0.085595634213208607 -0.046395073459435131 0.086221717398228148 -0.046263072782633557 0.086870765374777961 0.098190352259097405 -0.02152470422222488 -0.051380074682357585 -0.051717704727447855 -0.046638500446128772 -0.047581816825294207 0.082476290873025548 -0.046047306428726537 -0.040134191894843255 0.096267685284508214 -0.046489688640082245 0.060457957516239183 -0.050364591317154851 0.084155454471883009 -0.046652622155250512 0.082620086871057916 0.064317700871897615 -0.04817564804325751 -0.044769550440862865 0.10309739244075145 -0.04723436504813272 -0.017044363897993211
leaf_weight=1345.9894054792821 266.7233403660357 8147.4131938889623 1719.4935067407787 1671.0560896247625 1855.3585849329829 835.72760009765625 2769.163689263165 2371.5297832489014 263.18787743896246 3440.5130411423743 122.98563187196851 93.137417189776897 350.28530856221914 397.6553952768445 64053.488223552704 100724.41065853089 51615.907070286572 1635.4820649847388 428.40698073431849 164.98847594484687 133.87055189162493 859.00394396111369 2574.4487507529557 7447.0350336171687 231.89262057468295 102.70541203394532 2120.5007226020098 278.53979301452637 1345.9371810816228 1973.3822434730828
leaf_count=25735 4304 2767 1740 706 35315 178 53062 506 569 21046 1936 1453 6568 7100 46279 327327 469972 1069 8088 729 2093 1564 48241 5698 991 1757 1239 63 24272 1155
internal_value=7.40998e-06 -0.0324665 -0.0379299 0.0730606 0.0566048 -0.0413087 0.0138451 0.0355364 0.0125751 0.0090862 0.0777654 0.0538108 0.0788249 0.0599958 0.0816525 -0.0419783 -0.0349674 0.0220566 0.0666352 -0.0159721 0.0821992 -0.0384996 -0.0139262 0.0804431 -0.0278242 0.0841518 -0.0371732 0.0643028 -0.019921 -0.00348415
internal_weight=261340 180918 170462 80422.4 10455.8 160019 10442.7 7673.53 5302 5509.22 74913.2 10459.1 8600.4 2068.71 64454.1 159184 58459.2 3409.88 2063.89 2889.06 64187.4 55049.4 3433.45 7570.02 2517.38 8250.12 2285.49 371.677 3582.51 2236.57
internal_count=1103522 1009885 963478 93637 46407 882174 81304 28242 27736 28852 64785 12109 11092 7806 52676 881996 554669 34892 9157 4475 48372 519777 49805 7634 2959 4524 1968 1516 25996 1724
is_linear=0
shrinkage=0.05


Tree=24
num_leaves=31
num_cat=0
split_feature=30 18 34 21 27 11 6 30 6 18 24 20 6 8 36 30 4 24 24 11 27 15 36 36 35 24 34 6 36 18
split_gain=39137.7 90481.9 58975.7 27855 25709.9 11854.5 9312.57 8406.48 7825.15 7063.99 5800.53 4679.96 4669.51 4224.12 4397.57 3835.02 3252.86 2820.02 2488.98 2461.55 2291 7973.64 3512.24 2228.14 1993.5 1985.11 1816.55 1786.43 1390.31 1202.59
threshold=2.8617925509761908 4.6586997221347959 1.8688348091416842 3.6762205501217919 1.0000000180025095e-35 1.0000000180025095e-35 2.1383330595080281 2.3502401828962087 2.602003343538398 1.8688348091416842 1.7005986908310777 1.7005986908310777 1.4978661367769956 0.89587973461402759 5.0968083143154814 2.8029010331479989 1.0000000180025095e-35 3.3842466058243152 3.1567740231385479 1.0000000180025095e-35 0.89587973461402759 1.4978661367769956 6.4272968650711446 5.8126357624008849 2.8029010331479989 3.0201273556387074 3.4498615536424366 2.1383330595080281 5.040188859666439 4.8481086751891054
decision_type=2 2 2 2 2 2 2 2 2 2 2 2 2 2 2 2 2 2 2 2 2 2 2 2 2 2 2 2 2 2
left_child=1 2 4 12 19 -5 -6 10 13 28 -3 24 -2 17 -15 26 27 -4 -9 -1 21 25 -23 -7 -8 -12 -11 -14 -10 -24
right_child=3 7 8 5 6 23 11 18 9 15 20 -13 16 14 -16 -17 -18 -19 -20 -21 -22 22 29 -25 -26 -27 -28 -29 -30 -31
leaf_value=0.081605528776321892 0.081172107668413152 0.082731356988126947 0.07956700933693954 0.081744284738461903 0.083167269102723415 0.088894450626981147 0.088043291114259736 0.082477304547082131 0.090501109526686552 0.081552534521836223 0.090867538762640671 0.083843616631326015 -0.044875040236096383 -0.040926419269694779 0.082594056587611181 -0.031681469784806578 0.082291175393061355 -0.031626796163627367 -0.041524485942777571 -0.021946201320766325 -0.04170303154811171 0.091834079761377085 0.098085909562164814 -0.037755188140206002 -0.045265928239379194 -0.014125024716892844 0.00049603717971010385 0.12135222387633658 -0.045489447061155472 -0.036803594865367821
leaf_weight=6668.1056193113327 760.10264284163713 1058.8436986505985 57047.97392629832 7175.2150574177504 1627.5017761737108 384.09108074754477 283.62747443467379 2083.7423013076186 201.46776799112558 5200.0965743437409 1777.6965971812606 739.55434777587652 64811.270294528455 1547.9778653085232 1348.0901233702898 1077.3307878747582 510.14682051539421 575.96085252612829 502.20609594136477 627.94131269305944 45616.354365378618 554.61101429909468 166.60083805024624 3623.0787534043193 24928.098832070827 602.88085155561566 797.17320157587528 162.03391479700804 2800.4067849814892 20147.019068334252
leaf_count=79067 9000 12592 667480 85105 19397 4690 3441 24757 2456 61642 21729 8829 5748 1222 16052 1750 6060 875 347 1561 24593 6862 2106 3797 1901 1735 3613 2249 705 21771
internal_value=-4.57628e-05 0.0128637 0.042423 -0.029721 -0.0107724 0.0432722 -0.0328535 -0.0301327 0.0687017 0.0279055 -0.0334067 -0.0401296 -0.0420428 0.0754942 0.0165711 0.0551756 -0.043473 0.0784556 0.0583954 0.0726932 -0.0351924 -0.0224179 -0.0323079 -0.0256157 -0.0437662 0.0642782 0.0707783 -0.0444605 -0.0363626 -0.0356973
internal_weight=255407 177981 105471 77425.9 34874.8 11182.4 27578.8 72510 70596.5 10076.5 69924 25951.3 66243.6 60520 2896.07 7074.6 65483.5 57623.9 2585.95 7296.05 68865.2 23248.8 20868.2 4007.17 25211.7 2380.58 5997.27 64973.3 3001.87 20313.6
internal_count=1103132 986483 869991 116649 114196 93592 33568 116492 755795 70166 91388 14171 23057 685629 17274 67005 14057 668355 25104 80628 78796 54203 30739 8487 5342 23464 65255 7997 3161 23877
is_linear=0
shrinkage=0.05


Tree=25
num_leaves=31
num_cat=0
split_feature=30 15 35 6 22 21 5 23 30 14 36 1 1 1 27 1 1 1 1 1 1 1 21 21 6 1 16 15 20 21
split_gain=186151 83151.9 46737.6 16749 8805.71 6374.68 4646.21 2881.55 8773.12 3759.12 2017.82 1136.29 1056.14 995.06 719.369 97.7672 121.974 542.179 68.7052 934.627 53.5791 12.9525 0.529378 1.76021 0.517822 0.506984 0.122813 0.103326 0.0971283 0.0698256
threshold=2.9174053685313028 0.89587973461402759 2.8617925509761908 2.4414009612931857 1.7005986908310777 3.6762205501217919 1.0000000180025095e-35 2.0126758453675748 2.1383330595080281 1.0000000180025095e-35 5.2337752898422689 -0.70710678118654757 0.78656609248549303 -0.70710678118654757 1.0000000180025095e-35 0.37940952255126026 -0.60355339059327384 -0.3794095225512602 -0.3794095225512602 0.78656609248549303 0.60355339059327384 -0.5 3.6242520361853052 3.4811217321331038 1.4978661367769956 0.60355339059327384 0.89587973461402759 3.2156655409667398 2.740319461670996 3.0677824455408698
decision_type=2 2 2 2 2 2 2 2 2 2 2 2 2 2 2 2 2 2 2 2 2 2 2 2 2 2 2 2 2 2
left_child=2 5 3 -1 7 10 11 27 -9 13 24 -6 15 -10 -5 16 -13 -18 21 20 -20 -15 23 -12 28 -17 -26 29 -2 -4
right_child=1 -3 4 14 6 -7 -8 8 9 -11 22 12 -14 18 -16 25 17 -19 19 -21 -22 -23 -24 -25 26 -27 -28 -29 -30 -31
leaf_value=-0.045756882617286797 -0.045928673787025989 -0.045643777854545507 -0.045600198505441239 -0.045836862600642944 -0.049083558182471516 -0.04576010636292048 -0.04567164451195254 -0.045666182506610142 -0.04784235174009175 -0.045678892730570138 0.080566987280619937 0.083237103484616937 -0.052378622174419021 0.072718326119337082 0.08037901045506661 0.086961045051843544 0.07102946594452772 -0.052195955066567414 0.065480381073992663 -0.051155287653789232 0.084286647485887795 0.082136123246802265 0.080599802327862347 0.079834804984055985 -0.049697626298491969 0.085053093724496973 -0.053084929700143203 -0.047753013815575618 -0.049563376900140517 -0.045693810174320976
leaf_weight=3467.8862492330372 139.8624745644629 16421.74922735244 24855.120290596038 113.98790119215846 217.07961266115308 1022.0194861628115 1497.6603009328246 11812.735551297665 190.55180601775646 1042.3546217568219 25947.14274597168 637.37343101575971 167.67491152882576 685.68793555349112 11743.50877431035 771.52794356644154 617.84536715596914 104.34012704342604 738.57921778410673 162.20446173846722 777.33423315733671 780.82945760339499 37745.761688232422 12007.071338251233 108.67856355011463 634.52825284749269 35.500316828489304 59.862318985164165 21.160978127270937 100330.93318409473
leaf_count=50613 2754 56627 88032 2259 178 20351 1567 8614 164 2051 365 30 114 60 329 31 57 88 115 122 34 30 531 1025 1733 27 504 1045 339 863343
internal_value=0.000344035 0.0565045 -0.0321704 0.0508977 -0.0408849 0.078282 0.0268319 -0.0431103 -0.0232604 0.0372013 0.0799499 0.0612995 0.0694684 0.063104 0.0791657 0.0768558 0.0672955 0.0532261 0.0698269 0.0629179 0.0751239 0.0777327 0.0804672 0.0803354 -0.0483552 0.0861 -0.0505317 -0.0456762 -0.0464063 -0.0456752
internal_weight=254859 93448.9 161410 15325.4 146084 77027.2 4648.03 141436 16190.3 4377.54 76005.2 3150.37 2933.29 3335.19 11857.5 2765.62 1359.56 722.185 3144.64 1678.12 1515.91 1466.52 75700 37954.2 305.202 1406.06 144.179 125246 161.023 125186
internal_count=1103132 84229 1018903 53201 965702 27602 2092 963610 11190 2576 7251 525 347 525 2588 233 175 145 361 271 149 90 1921 1390 5330 58 2237 952420 3093 951375
is_linear=0
shrinkage=0.05


Tree=26
num_leaves=31
num_cat=0
split_feature=21 27 15 30 30 16 18 6 35 21 9 2 1 1 0 1 0 35 1 0 18 1 35 0 1 0 16 34 17 29
split_gain=128747 74423.2 85743.9 32580.1 15227.1 7162.64 3250.27 4359.91 3179.61 3113.19 3017.63 1978.68 979.797 953.549 653.373 429.95 2895.35 1124.68 98.9454 33.8821 741.884 20.1922 988.952 14.1979 27.4686 1007.87 9.0796 684.733 7.54058 1030.47
threshold=3.0677824455408698 0.89587973461402759 0.89587973461402759 2.740319461670996 2.1383330595080281 2.0126758453675748 1.8688348091416842 2.602003343538398 3.3842466058243152 2.8617925509761908 1.0000000180025095e-35 0.87837969732492682 -0.70710678118654757 0.60355339059327384 -0.9159756150367534 -0.78656609248549325 0.25881904510252091 3.7256208424938388 -0.5 -0.98296291314453399 4.945201156493737 0.78656609248549303 3.7256208424938388 -0.9159756150367534 -0.12940952255126037 -0.98296291314453399 1.7005986908310777 2.0126758453675748 1.0000000180025095e-35 1.2424533248940004
decision_type=2 2 2 2 2 2 2 2 2 2 2 2 2 2 2 2 2 2 2 2 2 2 2 2 2 2 2 2 2 2
left_child=3 6 4 -1 5 10 7 -2 -9 -5 -3 15 -10 14 -14 16 -12 -18 -16 20 -17 26 -23 24 -11 -26 27 -21 -25 -30
right_child=1 2 -4 9 -6 -7 -8 8 12 23 11 -13 13 -15 18 19 17 -19 -20 21 -22 22 -24 28 25 -27 -28 -29 29 -31
leaf_value=-0.045643568844925327 -0.04567650629680152 -0.045972742916707818 -0.045725654973276957 -0.045758386169381042 -0.045836025381271552 -0.045881022246738713 -0.045638326554731885 -0.045655977749762711 -0.047514450559850874 0.080665151690884812 -0.052591560172627699 -0.051119415286545768 -0.050030508210272176 -0.048012276040650718 0.055597391188937466 -0.057138414553539685 0.081567980643287658 -0.049061287244483588 0.083540411924407545 0.080810086653500882 0.081092285320518723 0.081518064109294477 -0.048975137339718249 0.080415100256835875 0.080191394858027912 -0.056040340802468003 0.080986780564625757 -0.046675381091714284 0.080366599358431365 -0.047737614991867641
leaf_weight=5899.0745595544577 4712.7769688367844 507.46389522403479 29803.1494041197 499.92536612227559 2959.2974687442183 1259.6700251102448 113938.03774547204 1090.3129161000252 212.44454562291503 3258.5190803557634 481.55754693597555 300.38041497021914 103.22800094261765 175.42189964279532 383.59947147220373 103.24675717204809 4254.1030744686723 171.41296643018723 1819.3328502327204 7218.5119180679321 1621.4334564208984 3950.9714221358299 150.73001126945019 29144.791365295649 3058.1304001510143 142.07216519117355 21615.023454323411 106.88663906604052 15243.227769248188 158.61437274888158
leaf_count=98853 94483 10012 78753 9982 49639 5385 741666 2106 408 297 982 647 202 330 142 308 78 569 140 77 16 83 572 842 293 276 438 2076 596 2881
internal_value=-0.000230708 -0.0194366 0.0199657 0.0656596 0.0637639 0.0715341 -0.0434136 -0.0135821 0.0263862 0.0784076 0.0751877 0.0767258 0.0555428 0.0643654 0.0729136 0.0776938 0.0638391 0.0765083 0.0786747 0.0796493 0.0728172 0.0800059 0.0767227 0.0796246 0.0774337 0.0741434 0.0804712 0.0789499 0.0799422 0.0790473
